GIS
1
0.0
8
O
I-ORG
I-MISC
I-PER
I-LOC
B-LOC
B-MISC
B-ORG
49
4562 0
131 0 1
33 0 1 2
2 0 1 2 3
17 0 1 2 3 4
3 0 1 2 3 4 5
2 0 1 2 3 4 5 6 7
6 0 1 2 3 4 6
16 0 1 2 4
2 0 1 2 4 6
1 0 1 2 6
4 0 1 3
9 0 1 3 4
1 0 1 3 6
17 0 1 4
1 0 1 4 5
79 0 2
4 0 2 3
2 0 2 3 4
6 0 2 4
4 0 2 6
22 0 3
6 0 3 4
17 0 4
2 0 6
554 1
78 1 2
9 1 2 3
7 1 2 3 4
43 1 2 4
2 1 2 4 6
2 1 2 6
72 1 3
22 1 3 4
217 1 4
1 1 4 5
1 1 6
1 1 7
152 2
19 2 3
2 2 3 4
2 2 3 6
23 2 4
6 2 6
878 3
33 3 4
248 4
1 5
3 7
7325
half
shooting
guards
pick
ten
%
spreading
investment
*
require
-
47th
0
10.6
10.5
4
triple
6
7
8
9
;
=
?
SEP
newspaper
SER
role
C
D
G
roll
turn
gold
result
opposition
golf
same
W
X
Y
commission
after
[
]
hand
resume
ordered
b
c
eating
blood
m
straight
entering
halt
sale
v
information
reopened
good
empty
tie
suffered
serious
gone
walked
10-day
Secretary-General
sank
provided
state-run
provides
thieves
hard
tonne
BID
dissident
quarters
multiple
interbank
room
better
ranging
PLAYERS
allegations
suitable
cancer
taking
semifinalist
voters
investigators
gained
compatriot
struck
hospitalised
block
flow
order
reform
coach
women
woman
save
protection
scrap
top
2-0
too
2-1
2-2
have
2-6
question
drugs
picture
2.1
2.2
2.3
FRIENDLY
2.5
rose
2.6
findings
cow
peacemaker
owns
representative
circumstances
including
20.
200
markets
202
And
violation
try
bombing
became
effective
210
times
212
muscle
218
says
direction
That
ammunition
8520
comments
ideological
Their
probe
220
stable
activities
abducted
incident
caught
STANDINGS
concern
232
worked
sponsors
238
Then
state
accuses
offering
shots
cup
sweeping
monitors
cut
probably
batters
4,000
two
moment
worries
attack
reported
10-15
ankle
immigrants
think
occurred
accused
replaced
team
services
They
marketing
266
speech
watch
83rd
cabinet
thing
margins
cwt
registering
reflecting
domestic
Aug
278
shook
There
paying
This
starts
stability
budget
eastern
glass
widely
280
These
riyal
scientist
290
farmers
house
Scoreboard
lifting
hours
start
fallen
short
finance
required
climb
measures
70th
BOXING
enter
savings
sessions
dates
hostage
bright
planned
unknown
blown
hanging
friendly
tell
possession
TAX
shows
shown
infusion
trucks
day
1980s
raising
island
water
formal
elsewhere
Sept
11-2
dated
11-8
11-6
introduction
22nd
built
therapy
heavily
18,000
colleague
third
build
11.0
2410
further
demands
quarter-finals
areas
three-month
parliament
finds
reimbursement
railway
announcement
7,000
fined
going
banks
impact
shock
MOTOR
average
treatment
bodies
investments
35th
journal
hotel
pre-war
term
acquisition
so-called
THU
accords
business
staff
possible
right
partly
yuan
stage
returning
maximum
unseeded
under
did
quarter
die
Around
fears
div
She
later
passport
livestock
airliner
highway
Shr
businessman
internationals
possibly
15-13
15-12
15-11
seasons
15-10
test
journey
finally
remained
enforcement
0.20
conviction
publicly
pro-soccer
toughest
final
Sir
loan
Six
back
training
states
pound
load
ferry
company
Squad
billions
relay
unc
grand
concerns
prosecutors
schedule
baby
unq
grant
showing
spokeswoman
qualified
lunch
helping
attempt
0.50
December
balance
3-0
Despite
3-1
3-2
revealed
pitch
text
3-6
weakening
3-7
'd
go-ahead
researchers
made
'm
being
TOP
contents
qualifier
3.2
warned
3.5
interval
3.8
dog
3.9
status
**
trading
bags
FRIDAY
scattered
government
known
nurse
3/4
coalition
crime
stand
knows
forward
+1
+3
+4
+5
300
309
use
subject
main
opposes
revenue
312
concentrated
grain
credit
intensive
--
waste
baht
includes
establishment
streak
323
325
326
..
ball
threats
half-time
make
included
attempting
opposed
TUE
questioned
stake
due
threat
350
observed
353
presidency
cholesterol
band
1.
released
10
boxes
12
13
14
15
17
18
19
hijacking
B-SBAR
allied
benefit
highest
regained
2.
allies
20
male
21
22
23
24
25
26
postponement
27
28
29
industry
long
1st
3.
30
workers
cuts
32
But
33
34
35
36
37
star
38
39
84th
bans
many
382
stay
controlled
389
increasing
progress
4.
40
41
42
43
44
45
46
47
abortion
militia
48
49
10.10
numbers
rapid
seven
395
Last
398
5.
50
51
52
53
54
55
admitted
56
surprise
57
58
59
dropping
Deputy
sealed
seeds
TUESDAY
invited
complaints
look
crushed
grounds
achieving
murdered
6-
6.
60
61
62
63
64
65
66
67
68
Prime
69
Secretary
needed
mass
speed
auction
common
interest
7.
themselves
70
71
72
73
74
75
77
78
79
Late
winning
politician
LATEST
bars
10.09
landing
8.
Every
81
formula
step
82
83
revolt
84
85
mark
86
tribute
base
87
88
ceasefire
trend
spotted
loss
9.
lost
91
MANAGER
92
93
94
preliminary
work
lose
cattle
mate
delays
registration
missionary
word
stated
love
secret
across
qualifying
mortgage
set-top
rushed
bullish
gathering
opinion
soldier
ONE-DAY
CRICKET
basketball
portfolio
SCHEDULE
12-8
spell
+91-22-265
boxcar
HORSE
mining
lows
visitors
preparing
12.0
provision
seems
sporadic
Chief
profit-taking
scientific
winter
platform
CONTENTS
walking
spend
Since
February
advantage
spent
instead
shipments
stolen
communist
exception
temporary
hands
year
allowed
via
awaiting
understanding
near
silence
victims
economy
restructuring
community
version
planning
AT
stop
least
immediately
resignation
subsequently
PREVIOUS
Played
swimming
As
At
BY
agreed
computers
representing
DIV
By
severe
rounds
instructions
Chg
notes
evidence
sprint
official
spring
autonomy
assessment
leave
deported
minister
need
often
newspapers
hijackers
EX
tests
loose
sanctions
private
Soyoil
10th
companion
complained
During
engine
4-0
4-1
4-2
end
4-3
GB
packed
lines
4-6
fails
second-half
chief-of-staff
H1
joked
special
noted
vouch
environment
undertaking
4.4
tries
slightly
education
occupation
called
DNS
investors
vs.
newly
tried
INDICATORS
outbreak
narrow
He
programmes
specify
KEEPS
400
Top
seventh
Senior
brawl
If
weapons
singer
It
asked
era
rights
416
share
climbed
television
Amount
2nd
chairman
KV
sharp
426
M2
THIRD
cent
LS
metals
screen
trial
controllers
links
trafficking
below
runway
shall
driving
NA
61-2
Balance
NO
unexpectedly
financial
elderly
raced
forma
running
eve
Record
ON
declared
rates
transport
rated
Of
strategy
PM
forms
long-term
Q2
victories
maintain
companies
pounds
remain
expected
countries
85th
monitoring
eye
himself
wanted
deposit
feels
argued
another
guarantee
journalists
comeback
centred
envoy
trophy
triumph
5.15
black
consensus
such
showers
recovered
So
grab
Other
battered
metres
penalties
administration
sterling
developing
remains
arriving
operator
white
counterpart
huge
To
UP
birdie
superb
might
FINAL
servants
deposed
LAST
leads
Up
fields
next
import
submit
conclusion
organisations
WP
supporting
factor
postponed
news
60,000
visas
green
race
effectively
was
warehouses
war
futures
5.50
grew
We
way
arable
attempted
window
athletics
secretary-general
play
5.65
fought
quickly
taxes
decide
issues
fan
far
prostitute
YR
issued
plan
Shares
double
suicide
seeded
WOMEN
comfortable
Yr
suit
completely
study
brokers
demonstrators
differences
fever
burned
gain
reliever
receiving
financing
grip
shareholders
wet
electricity
great
happened
fifth-seeded
pleased
sides
balloting
economic
statistics
arrest
section
retirement
looks
EDT
few
Diplomats
crackdown
quoting
rain
hunt
zlotys
rail
BEAT
opened
produced
outside
effect
producer
Fall
sugar
who
option
raid
37th
politics
game
unexpected
crucial
contribute
why
died
denies
candidate
30-year
win
lawyer
Until
soccer
Dec
barter
From
kerosene
various
administrative
Summary
attention
visit
denied
reduction
24-year-old
parent
voted
losing
rand
fix
deaths
addition
doubts
24th
sure
grow
marginally
excited
an
former
extend
as
looking
formed
hurt
be
virus
day-night
accusing
systems
000s
by
panel
Did
foot
ca
NYMEX
scoring
charge
outstanding
keeping
food
fly
withdrew
partner
votes
voter
interview
observers
11th
language
dn
sites
Friday
attacks
won
rare
5-0
5-1
5-2
5-3
5-4
criticism
5-7
which
expelled
pesetas
never
piece
5.0
fob
END
first-class
containers
5.5
5.6
watching
easing
jailed
pinch-hitter
perhaps
rate
plot
5/8
digital
recalled
go
form
500
504
he
withdraw
placed
tabulate
EPS
welfare
appeared
four
else
easily
if
zinc
likely
disputed
commitments
dismissed
it
aimed
announce
gave
become
Dr.
recovering
inflation
settlement
accomplices
sending
ability
kg
km
immigration
knew
knee
places
542
lb
wooden
548
fun
attache
political
while
photos
second
that
faster
picked
555
than
me
limit
locked
mm
contest
3rd
feeling
my
plus
lb-3
expansion
collided
entry
fiscal
postpone
heat
student
terrorists
mixed
storage
head
imported
reserve
hear
occupied
allocated
or
sports
86th
families
easier
sitting
indications
nation
AFTER
registered
extremely
599
BREAKS
73rd
hundreds
recent
they
suspension
eighth-inning
them
then
seat
attorney
33-26
oppose
1,500
commentary
discovered
seed
executed
seek
seen
organisers
poisoning
so
apart
teenager
exported
issuing
calendar
st
unions
decision
necessary
starter
STAGE
started
neighbours
closes
closer
single
paedophile
cement
closed
to
commercial
joint
separate
reasonable
rules
loaded
first-half
ruled
military
up
reluctant
us
waters
usual
purchases
this
thin
remarkable
sees
failure
60th
quake
know
kilometres
vs
suggesting
changed
changes
MATURITY
we
destitute
gap
wo
gas
slight
previous
reading
planting
compensation
kilometre
kidnapping
held
Income
Tel+44
courts
type
troops
beyond
terms
yr
militant
phase
surrounding
teams
atrocities
contract
bonded
tonnes
elections
churches
exact
praying
force
surrounded
south
refunds
Shrs
get
continues
course
power
sell
premiums
continued
suspect
help
forcing
massive
10,000
ended
located
38th
sound
FROM
sales
hanged
SUMMARY
CORRECTED
create
criminal
PREMIER
stranded
sent
COACH
addressed
purposes
WIN
send
judges
here
concrete
contacted
scale
hero
security
station
disappointing
25th
costs
factory
medals
implementation
smoke
follow
intent
revenues
factors
treaty
edged
skies
ounce
naira
300,000
without
youth
civilians
introduced
sovereignty
audience
sexually
much
800,000
defence
weekly
grenades
6-0
6-1
6-2
6-3
boosted
6-4
6-5
resolved
6-7
committed
committee
sets
defends
WP$
union
Revs
6.0
6.1
6.3
returned
6.5
adopted
standard
reports
BASKETBALL
got
area
murder
shipment
FOR
moisture
lack
success
600
authority
cleared
batting
young
gasoline
negotiations
complaint
lady
analyst
named
foreigners
considered
focus
delivered
favorable
entire
changing
wrist
approach
decisive
Turnover
write
wage
repatriation
passengers
understand
suspended
intelligence
winner
million
strongly
bulk
champion
larger
gun
wait
riders
guerrilla
walkover
Gluten
particularly
heading
discussed
names
framework
+301
tonight
tabloid
bacteria
almost
suits
associate
earlier
whether
shelling
4th
However
87th
basis
affected
Conversion
680
army
arms
governor
basic
5000
unite
replied
bush
policies
units
pursue
ties
busy
extra
land
I-CONJP
tied
automatic
consecutive
conduct
walk
marred
refusing
laps
unidentified
advertising
crowds
5017
coaching
arrangements
events
discussing
a.m.
chaos
want
forecast
rifles
difference
must
resign
61st
hitting
accident
5040
incompatible
found
seeding
defense
currency
limits
disarmament
beating
politicians
month-end
1,600
reverts
attend
consortium
nationals
goods
voting
had
ALERT
accounting
secure
late
school
things
has
last
weight
allegedly
measure
citing
disrupted
exports
15-9
impossible
effort
wave
yesterday
NOTES
weapon
stronger
ends
15-8
15-7
15-6
15-5
15-4
steady
vote
early
15-2
disease
yen
yet
insurgents
disposable
wages
infrastructure
initially
time
highs
Fax
applications
electoral
happy
Scores
Scorer
governments
GDP
her
offence
having
laws
armoured
1500
doubles
passenger
tiny
pornographic
39th
doubled
4-95
confirmed
vowed
tourist
ways
Lead
Almost
editor
chain
consistent
reverse
tennis
earnings
garden
small
before
aviation
him
hit
his
squash
beat
potential
auctions
30,000
repeatedly
Officials
history
26th
square
repairs
twice
camps
colony
values
point
debut
diverted
visits
banned
restore
Only
meal
mean
approve
valued
CYCLING
nominated
settlements
13th
been
beef
advance
PRO-BASEBALL
7-0
7-1
killer
7-2
strict
7-3
7-4
you
beer
7-5
7-6
unspecified
opportunity
active
court
subsidiary
deals
7.0
firms
7.2
7.5
hog
cited
abuses
hot
liquor
Gen'l
how
innings
assembly
dragged
march
blast
cargoes
meet
answer
calls
700
scrum-half
restored
Monday
putting
sometimes
questions
promise
reply
coordinator
For
blame
carrying
beginning
waiting
six-month
softer
bloody
grandson
killed
although
diplomat
decades
president
ransom
dropped
action
fired
suspected
accompanied
fires
reached
asks
acting
first-round
Right
deliver
headed
eight
products
illness
could
strike
5th
marks
able
THURSDAY
concerned
Obviously
short-term
solution
opponent
international
citizen
cities
difficult
steps
friends
peasants
forget
dubbed
header
present
problems
arrested
borders
best
movements
75th
certainly
spokesman
impressive
concerning
lions
regulation
Fuel
suburb
Each
hectares
feared
quotes
quoted
cover
defenders
based
something
miners
equalised
religious
fact
fundamental
bases
Under
schoolgirl
one-week
actually
face
showed
After
ratio
refugees
independence
guilders
4.50
replacing
finding
elected
1996/97
vital
jumped
rule
equaliser
521-8
propaganda
65,000
meningitis
comment
humanitarian
guns
14.12
erupted
discussions
Summaries
fair
safety
competing
dressed
Captain
doors
fail
diesel
steel
seize
church
isolated
foreign
fall
27th
appearance
culture
fake
runs
first
LEAD
perfect
fewer
clearly
poll
pole
spite
from
SUNDAY
Goalkeepers
ill
finished
manufacture
speaker
replacement
14th
death
advice
according
denounced
operations
paper
winds
1673
value
8-6
verified
staged
right-field
fans
stages
fishermen
fleeing
growth
8.0
shaken
resolution
poor
farm
unlikely
virtually
excellent
fairly
pool
airport
charges
protesters
15,000
800
municipal
charged
shortly
providing
weeks
fate
insistence
overs
pork
retire
aggressive
close
supporters
linked
Gov
Chairman
fast
trials
nine
10,650,407
organised
controls
rural
HRW
post
its
respect
article
port
income
buyers
production
united
directors
searching
choose
peaceful
miles
overnight
previously
852
striker
strikes
democratic
perpetrators
bills
859
Attendance
reigning
four-run
improvement
pushed
college
Ambassador
nervousness
number
property
nothing
testing
distributed
tough
urged
89th
silver
city
confident
local
SCORES
yield
1995/96
decisions
filled
FIRST
removed
powerful
shed
smashed
YEAR-AGO
76th
referee
points
copies
859-1610
maintained
qualify
border
landless
read
derailed
touch
real
prompted
April
communists
unit
finals
63rd
monthly
gear
badly
shattered
entertaining
confiscated
five-run
today
construction
parliamentary
saying
organising
radical
looked
minute
application
rebels
formally
reason
Obligation
ship
acts
demonstrations
annual
exclusive
shopping
using
containing
investigating
completed
demand
photographs
letter
frequently
handed
acquire
worth
taken
dividend
takes
popular
broken
missionaries
broker
armed
liquidity
debate
UNDER-21
either
jet
those
estimates
barges
lifted
telephone
significant
longer
colleagues
parties
worst
selling
leaving
shop
distance
5,000
prospects
show
cautious
shot
killings
street
400,000
estimated
Her
nervous
rebel
bounce
largely
frost
severely
gene
LEADING
28th
speculated
refined
style
QUALIFIER
settle
babies
vehicle
freedom
criminals
bilateral
hamstring
consolation
consulted
nomination
His
Sheikh
shut
bonds
fielder
15th
influence
....
9-7
crisis
Tries
important
disciplinary
detective
veteran
bones
daily
job
daughter
9.5
largest
Princess
investigations
captain
administrator
billion
sheet
sheep
rest
original
prosecutor
kingdom
gets
afternoon
900
investigation
front
flights
You
customer
plane
equivalent
projects
offer
diplomatic
complex
afterwards
narrowly
plastic
plans
plant
drive
Archbishop
sixth
servant
Sales
offered
civil
national
customers
Speaker
jobs
founded
medicine
entered
difficulties
941
refuelled
Aggregate
developed
detention
contact
champions
CLUB
searched
parts
western
helps
duties
however
visiting
sources
trained
Instead
signs
related
captured
aunt
pardoned
views
Rice
outperform
directed
historic
wearing
7th
SCOREBOARD
farmer
prompt
merger
tunnel
elaborate
Nearly
crowd
cycling
output
totalled
Penalties
warrants
corner
majority
join
crown
sentence
realised
director
shareholder
ordinary
Earlier
lung
attracted
narrowed
reporters
brought
works
alive
pursuit
payments
tournament
emerged
thinking
world
Teams
Standings
everything
programme
side
bread
pence
creditors
break
missed
restaurant
dictatorship
century
hide
traditionally
report
powers
married
auto
sign
cotton
sclerosis
high
split
falls
8,000
expressed
different
directly
officially
level
adjusted
64th
establish
arrests
belongs
focused
parents
birthday
Before
scorer
scores
Issuer
total
Scorers
loses
consumers
fours
consumer
declines
plays
economist
initiative
social
51st
sells
raised
cross
control
demanding
declined
lobby
scored
overthrow
threatening
commanding
behalf
scene
WEDNESDAY
20-month
raises
strengthen
injury
publishing
placings
assemblies
accept
northwestern
two-year
stopping
home-made
access
expels
nationalists
26-year-old
key
surprised
stopped
launch
quell
confirm
cricket
fourth
vast
available
Analysts
sector
extreme
dismal
banning
especially
once
figures
records
pending
What
throughout
conflicts
strokes
criticised
technology
29th
consulate
litigation
ones
compromise
SQUASH
backed
reach
tighten
between
lending
following
logging
450,000
drivers
16th
overseas
weak
kms
seeing
blocked
place
regular
informed
dispute
aggression
offenders
lead
hits
expect
Asked
site
When
highlights
state-owned
leaders
eased
TENNIS
assets
sixes
should
only
crashed
justice
officers
9/16
kph
individual
loans
accepted
interim
person
testimony
week
acknowledged
ready
studies
player
greatest
manufacturers
limited
'll
match
While
played
pills
explosive
prepare
spoke
surgeon
owners
approved
would
legs
customs
incomes
solid
reserves
relegated
strategist
size
left
elect
example
balances
quiet
raids
policy
resigned
address
destroyed
police
throw
fifth
surgery
violent
Its
're
export
others
making
sectors
check
8th
relatives
onto
hijacked
mines
fly-half
survivors
supposed
226-5
flown
flows
November
pilot
approval
41.0
versus
explosion
ATHLETICS
well
personnel
handling
outlook
Organisers
78th
gains
inventories
've
cooperation
went
considering
custody
rains
cooperating
bringing
privatization
schools
spots
orders
southeast
managers
respectively
matter
walls
noise
product
5452
premier
65th
produce
walks
cheat
pitting
capital
minor
fuel
marijuana
employee
explosives
pray
helicopters
biggest
function
west
raise
quite
employer
pitches
lap
tower
traffic
pitched
less
suspects
successive
institutions
condition
were
ceremony
improve
Death
lbw
university
troop
floor
possibility
economists
wounded
opening
doctor
industrial
lengths
sport
maintenance
led
diplomats
supply
leg
lei
mountain
pact
let
separatist
adviser
press
cargo
two-run
1909
night
pace
dystrophy
each
Newspapers
TOSS
items
document
killing
dollars
dystrophin
networks
does
situation
clause
refused
withdrawal
3.75
timetable
producers
homered
prayer
detained
quit
demanded
insurance
southwest
medical
two-thirds
prix
source
unable
homes
weakened
homer
acquired
tension
chest
involves
doubt
athletes
develop
CHAMPIONS
nurses
1940
involved
dominated
district
overall
1949
fixed
1948
1947
full
referendum
away
painful
n.a
harvest
pain
suspicion
purchase
titles
pair
manage
equal
upstaged
MONDAY
fund
paid
1969
1968
1967
three
17th
1974
1972
season
DOCUMENT
controversial
1979
hardware
deputy
threw
batter
players
roads
1987
judicial
1986
1985
1984
provide
1982
1981
1980
bids
seasonally
1989
1988
100,000
MARKETS
9000
lot
computer
1995
premium
1994
low
1991
telecoms
merely
1999
meant
means
aides
funding
initial
centre
fellow
unbeaten
advancing
interests
None
crushing
door
quick
husband
experience
launched
strikers
Eight
commander
renegade
zone
disappeared
checked
affair
jewelry
minutes
particular
illegal
done
August
ample
residents
ease
8-15
part
east
relief
boycott
washed
seeking
B-ADVP
someone
earn
four-day
asylum
surged
record
provinces
pass
past
mile
bill
whose
easy
senior
Note
census
BASEBALL
October
mins
Jul
mine
mind
retailer
apartheid
leftist
inch
added
emergency
displaced
down
launching
incumbent
adding
club
legal
signal
regarding
month
acres
rather
importance
title
papers
With
miss
79th
plantation
nuclear
human
Leading
permission
RACING
faction
beach
brothers
discount
blanked
Halftime
CONFIRMED
supplies
1996-08-24
1996-08-23
1996-08-22
1996-08-21
Even
letters
fear
1996-08-29
1996-08-28
all-rounder
1996-08-27
4221
1996-08-26
1996-08-25
Director
signed
sense
removing
printed
field
post-war
served
wilderness
opens
legitimate
1996-08-31
1996-08-30
coached
upset
serves
53rd
targets
mad
man
may
DRAW
reforms
feet
bonus
defending
feel
Result
convene
year-on-year
residence
abduction
equipment
ideas
pressure
bases-loaded
feed
constitution
men
repeat
physical
met
no-confidence
speeches
barley
tankan
exactly
surveyed
wicket
circulation
MATCH
about
danger
Extras
crash
granted
character
belted
above
stick
goals
moderate
injunction
beaten
received
substantial
quality
avoided
animal
consistently
boost
shared
association
believe
shares
fell
into
resuming
holes
stiff
middle
though
appeal
appear
definitely
associated
9373-1800
holds
experts
open
forced
suffering
invest
project
tobacco
felt
mln
injuring
50,000
forces
flying
proposals
secured
allow
polls
18th
stocks
stalled
activists
performances
patrol
recently
hostages
Neither
renewed
money
healthy
claimed
whole
revolution
attempts
profits
still
sprinter
mph
linking
benchmark
toward
books
among
internal
defended
specified
throwing
appearances
believes
federal
believed
include
alongside
aged
genocide
SOCCER
cutting
wickets
defender
injuries
prepared
divorced
expecting
midday
offset
capture
failed
appointed
DATE
tabulated
+31
8.30
+33
NOTE
talks
riots
TOTAL
assistant
+44
command
+49
three-game
revised
saved
leading
urge
July
because
cruised
moving
RESEARCH
marched
agreement
dealing
mayor
bronze
permits
aboard
returns
WINS
June
forest
optimistic
32-year-old
sleep
sweep
highlighted
slam
debates
anniversary
republic
two-time
historical
whales
artillery
surrender
rebel-held
poised
attributable
wrote
originally
jail
PRESS
kuna
volume
materials
rises
technical
breakdown
ride
stretch
responsible
medal
dating
agencies
rice
WITH
visited
attacked
family
atmosphere
career
told
release
judge
similar
partnership
parrots
extradite
thousands
crossing
Just
Some
driver
MAY
indicated
54th
holiday
crude
manufacturer
holders
indicates
rigs
deficit
stores
veterinary
bushel
firing
capped
tops
jars
volatility
losses
whites
net
cable
new
took
positions
mandate
20,000
seedings
reaching
media
around
pesos
stepped
cannabis
DIGEST
employment
specific
SECOND
territory
developments
ring
shift
professional
securities
nil
decided
shoulder
0800
hurdles
eliminated
toss
slow
three-year
militants
mosque
maybe
automatically
rallied
students
helicopter
expectations
protested
riot
tour
persuade
stayed
supported
resulted
documents
breakaway
19th
research
MLN
houses
wounds
town
engineering
boats
girl
decrease
airports
yards
reopen
rallies
Parliament
involving
blind
January-June
September
string
hidden
nearly
nor
not
now
statement
Tuesday
lived
delivery
election
MON
bourse
what
risk
rise
container
Oct.
when
nearby
exiled
crush
struggling
catch
promising
give
lives
liver
Local
stations
MPs
ships
determined
farms
sentences
direct
flags
sentenced
markka
heads
certain
levels
board
pursuing
nun
10-year
used
earned
whale
right-wing
12-15
otherwise
marked
market
effects
keep
forecasts
imprisonment
90th
alone
3,000
along
rocks
dialogue
designed
RESULTS
handful
critics
Today
contained
uses
bring
promoted
equity
+7095
manufacturing
giant
investigated
league
BALANCE
peace
competitive
ordering
top-level
rescued
search
communications
insurer
whom
franc
44.2
JUNE
pullout
mounted
actor
Thursday
girls
fighters
strikeouts
warning
exclude
heating
image
42nd
mainland
6,000
burst
carry
venue
mountains
MONEY
clash
mistakes
12.92
trouble
class
reporting
attended
Although
kept
management
significantly
very
decade
congress
delayed
drag
javelin
issue
lower
metal
index
separatists
decree
traditional
continuing
turned
indefinitely
eventually
settlers
camera
seemed
draw
2.20
off
generally
complete
edge
ruling
widespread
signalled
chronic
Dividend
avocado
months
follows
chosen
headquarters
expand
five-year
AUGUST
survey
coal
Playing
investigate
Match
oil
fight
brief
pretty
handover
recover
determine
17-14
voluntarily
drew
lands
remarks
strategic
promised
speaking
province
estimate
promises
breaking
proposal
registrations
old
settled
opponents
lowered
spectators
150,000
ancient
Close
starting
checking
conservative
conference
activity
blew
three-test
tanks
fights
one
cents
speculate
pull
buying
dealer
pulp
country
aide
willing
---
briefing
regularly
details
Another
treated
praised
ensure
exploded
epidemic
clocked
buses
towns
region
support
drop
cold
life
expects
roubles
cases
wide
regime
Commissioner
premature
interrogated
TITLE
location
software
chains
competition
none
rupees
problem
closing
connection
presence
seized
abandoned
wife
makers
profitable
come
push
lift
handgun
Those
sexual
A-rated
distribution
ACTUAL
our
out
capacity
More
noon
dark
sixth-inning
According
7-15
cool
unnamed
minimum
date
reveal
data
corn
own
murdering
RECORD
drug
blow
activist
re-election
development
like
proposes
Operating
ending
efforts
proposed
council
fraud
embassy
ground
visitor
Both
note
everybody
penalty
line
exile
link
riding
recovery
intends
stories
cost
aims
will
confidence
fishing
dictator
groups
allowing
Witnesses
compliance
Also
challenge
wild
semifinals
snap
chips
your
remote
rider
these
begins
kidnap
prison
sister
wins
devices
coup
analysis
apparent
VICTORY
wing
arrives
independent
ahead
achieve
concluded
yellow
alleged
talking
arrived
lira
editorial
faced
69th
blue
32.0
unprecedented
days
faces
discuss
liberal
sharply
wish
deadly
belonging
1-106
par
vicious
invitation
homers
pay
revival
list
rivals
About
candidates
spending
claims
child
legislature
56th
remove
fatal
Over
live
responded
pct
victory
extradition
avocados
with
service
there
unpaid
growers
pen
revive
per
period
birth
confirmation
slowly
jointly
120,000
forints
ever
even
meetings
indication
engaged
soybeans
injured
indicating
Among
violence
bought
spinal
requiring
policemen
imposed
30th
kidney
members
stock
Mafia
heroin
surge
everyone
snapped
guaranteed
Three
rarely
rising
initiated
unclear
cause
represents
intended
attending
working
victim
skull
20-year-old
department
garlic
chief
aircraft
accord
kicked
followed
despite
defeating
interested
hopefuls
policeman
teenagers
meeting
landed
displayed
began
violations
inning
actions
CALL
Announcement
panels
giving
prize
routine
reorganization
lunches
escape
trillion
gives
latest
receive
surplus
consulting
theft
declaration
...
standing
STOCKS
hailed
representatives
friendship
disappointed
continue
one-day
offers
given
crimes
freed
birdied
secrets
casualties
.01
.02
second-quarter
Not
guilty
Nov
Now
playing
birdies
employees
.435
coastal
goalkeeper
asking
complaining
anything
retired
BOND
pipes
windows
pts
endorse
.450
embargo
.457
CAPS
assassination
.470
put
.467
identified
.466
.461
.462
options
.469
struggle
7.12
meets
peso
subscribers
OUT
junior
light
apparently
.474
Current
methods
barred
semifinal
barrel
B-PP
.496
permanent
travel
choice
defeated
replace
stomach
FORECAST
major
worldwide
funds
consider
group
imports
gross
rugby
tree
6mth
shutdown
LISTING
request
-X-
their
percent
banking
general
process
requirements
clear
eighth
clean
listed
neither
glad
RESULT
account
mostly
hogs
trio
trip
hunting
rally
jump
prime
happen
festival
sparked
venture
population
route
33.0
trying
millions
B-VP
negotiated
comes
soil
bottle
involvement
hearing
spare
emotional
transition
appeals
Premier
series
represent
goodwill
compete
PAY
robbers
robbery
wounding
57th
hold
trail
ISSUE
prior
rubber
talk
vault
train
2001
planes
take
immediate
taka
relatively
PCT
some
session
newsdesk
additional
apiece
standings
telecommunications
2009
offences
2002
passed
just
four-year
owner
sole
sold
PDT
midnight
holy
solo
44th
tracks
home
hole
existing
OVER
championships
winger
material
owned
iron
explain
Oct
9,000
hope
soon
executive
sons
stadium
demolition
3311812-4
underwent
31st
protest
heavy
cancelled
10-year-old
painted
quarterly
summer
Still
member
incidents
+0.05
together
within
health
gathered
attackers
positive
agents
prospect
refugee
machine
Authorities
evening
return
serve
seats
intercepted
bowled
fine
find
Primary
host
selected
cables
drove
seriously
film
sort
fill
heart
rankings
task
scientists
specialist
ousted
true
position
since
sentiment
------------------------
dangerous
appears
hour
leadership
ranked
magazines
troubled
heard
experienced
falling
sought
extraordinary
guerrillas
measles
fence
coming
firm
.500
fire
.504
brokerage
taxi
except
.519
.512
kidnapped
.515
prominent
comics
global
unless
plants
.527
operating
.523
.526
irregularities
bribes
nb-3
denotes
people
.531
.530
hat-trick
celebrations
.538
ranking
operation
.534
.537
.536
reputation
inside
mainly
.542
runner-up
.543
leaves
provincial
crews
CBOT
five
.545
announced
squad
mountainous
unlisted
campaign
conflict
kills
analysts
installed
reasons
traders
lawsuit
scheduled
father
swept
recognised
wants
three-run
every
again
stockpile
PUT
SUMMARIES
prefix
negotiator
during
price
games
SATURDAY
Bowling
briefly
reduced
agree
resistance
welcomed
itself
.598
anyone
pride
broadcast
regions
hoped
birds
substitute
hopes
collective
event
witnesses
established
agency
caused
Following
agenda
Results
80th
damaged
cannot
span
patrols
struggled
minority
tight
space
reference
chamber
bottom
commitment
published
factions
collision
covered
intervention
arrival
frequent
membership
aggregate
network
terrorist
holding
trace
moments
public
terrorism
nominee
track
monetary
traded
unchanged
trader
trades
trade
performance
round
currently
third-set
ambassador
insisted
second-round
aiming
normally
unrest
accuracy
building
setting
nationalist
score
favoured
stabbed
ran
Maybe
authorities
goalless
southern
32nd
uncertainty
posted
blamed
dollar
58th
federation
SALE
awarded
pulled
under-21
indices
40,000
calling
couple
moved
Pay
Jan-April
Fastest
red
act
helped
finish
add
45th
escaped
mutual
exchange
soldiers
prevent
northeast
message
recorded
1.09
truth
moves
age
smaller
motorist
ago
years
gestures
decline
businesses
Minister
newsroom
conceded
exit
system
spot
aid
other
aim
retain
doubling
air
skilled
retail
crew
defeat
electronic
speak
dissidents
outcome
tender
boat
future
movement
signing
royal
-DOCSTART-
kidnappers
rating
body
all
always
already
tying
conducted
barrels
prayers
singled
contracts
favour
weakness
0-0
0-1
0-2
scoreless
row
batsman
abroad
1.91
any
suggested
singles
0.1
0.2
0.5
ninth
until
collapse
expanding
thought
prostitution
spying
Midfielders
protein
resort
margin
broke
grade
corruption
succeeded
increased
northwest
11.00
are
came
where
Many
arm
vice
holder
delegates
call
Several
calm
kick
partners
ask
canteen
relations
gunman
through
becoming
strength
officer
reportedly
offices
organisation
run
justified
bomb
mother
view
protests
ate
results
travelling
palace
Expected
200,000
camp
name
crop
Judge
truce
mood
Parent
absence
book
truck
edition
caps
negative
major-league
bone
bond
target
momentum
gunmen
leader
Commander
pledged
collected
amnesty
cast
hijack
officials
broad
princess
cash
greater
case
generation
matches
Doctors
cars
saving
phone
failing
card
care
participation
assault
damage
boss
pattern
fulfilled
exercise
labour
protect
BADMINTON
more
born
kill
27-year-old
bout
bidding
percentage
described
speculation
package
king
kind
timing
both
most
malaria
causing
sad
delaying
profit
move
amount
saw
also
say
enough
increase
spread
simply
59th
bad
bag
AA-
ban
bar
bat
draft
RBR
midfielder
personal
delay
submitted
clashes
deal
strong
abuse
affect
facing
dead
ministers
sea
smoothly
slogans
see
wheat
compared
set
fastest
joined
sex
column
procedure
46th
battle
250,000
fighter
river
bed
transferred
33rd
bowling
12-year-old
shutout
Latest
faded
francs
SQUAD
she
TEST
shr
resumed
debt
little
killers
explained
getting
salaries
conversion
over
ballot
Coupon
brilliant
six
living
practical
bound
football
retained
avoid
bid
fresh
big
advanced
600,000
nations
bit
two-day
slaughter
improved
thanks
striking
convinced
advances
modem
model
animals
reduce
large
surface
20th
satisfied
tomorrow
operate
begin
weekend
neighbour
finishing
soymeal
halftime
inquiry
convicted
table
bln
change
punishment
corporate
sidelined
facilities
several
northern
posts
rupiah
son
1-0
1-1
1-2
Qualifier
1-6
PRICE
AMT
thrown
Postponed
1.1
1.2
1.5
1.7
1.8
tense
behind
dozens
ROUND
box
mental
boy
ripped
1/2
1/3
bpd
prices
highly
unfortunate
chance
nature
illegally
10.
101
102
105
106
107
108
109
stance
county
stood
paint
fighting
11.
Saturday
110
111
112
scandal
115
116
117
friend
119
draws
drawn
trends
deny
closely
stg
14,775,000
12.
morning
120
ARA
mission
requested
servicemen
125
doctors
128
129
plunged
autumn
conditions
cooperate
overcome
13.
extended
130
serving
current
secretary
majors
137
managed
138
copper
civilian
preferred
participants
storm
manager
makes
maker
threatened
amid
RUN
14.
store
140
141
142
143
145
gallon
slipped
contacts
story
but
bus
suppliers
Defenders
medallist
buy
15.
express
AUG
written
films
shortened
GAMES
dealers
16.
wild-card
160
161
stole
164
higher
doing
idea
17.
170
prisoners
171
176
178
backing
missing
turnover
Thousands
successful
normal
figure
18.
weaker
180
181
drought
migration
passing
streets
tested
19.
Opposition
195
199
inches
seconds
212-859-1650
retiring
children
road
review
25,000
weather
ethnic
goal
Next
Revenue
neighbouring
racing
flag
seasonal
freight
range
topsoil
flat
1970s
PROFIT
elements
behaviour
argument
begun
dozen
growing
confessed
tag
tap
RALLYING
filed
goes
pro-baseball
tax
towards
ranks
chances
safe
presidential
departure
potentially
balls
flee
fled
aware
can
award
cap
car
marriage
flew
wells
said
village
carried
rainfall
motion
really
carrier
carries
BAT
response
rival
Reserve
3
B
L
N
P
V
Add
self-rule
Rugby
Group
Dealers
District
Export
Administration
NN|SYM
'S
Trade
Copper
Army
Information
bank
16
ministry
Socialist
Airways
Service
AS
BP
Gallen
Market
FC
OJ
Best
SA
TV
Workers
central
Affairs
XI
Research
OFFICIAL
TIMES
am
at
do
Rating
Nationalist
Wheat
Company
Conservative
magazine
Commerce
Investors
wall
Development
Relations
Order
interior
radio
Gas
Marble
Finance
Building
Club
Cricket
Defence
ISS
Business
Airport
party
Capital
Markets
I-SBAR
1860
Management
Police
Freedom
Education
Foreign
Against
Services
Maccabi
Life
alliance
Data
Weather
Chemical
Government
Security
Investment
Radio
MOODY
Medical
bureau
Fire
Intelligence
Armed
Traders
Daily
Agriculture
Industry
Supreme
vehicles
Health
Bond
affairs
Total
Press
Sale
2000
Human
Department
Team
Hurricane
democracy
Legal
Cabinet
Election
Media
Commercial
Interior
office
Wednesday
AND
motor
Soccer
Deutsche
Representatives
Refugees
Ministry
'
/
1
Air
Four
All
Stock
SYM
In
Two
for
in
is
Division
on
Social
War
Women
Safety
Open
division
First
Civil
Financial
Net
Council
International
One
Test
RUGBY
League
General
News
II
Man
the
I-ADVP
I-ADJP
DT
FW
RB
VB
VBD
VBG
VBP
VBZ
de
of
West
Black
JJR
B-NP
O
IN
I-PP
I-NP
NNP
CD
JJ
NN
I-VP
NNPS
NNS
,
.
's
The
CC
No
Central
People
Community
SOUTH
Northern
New
National
Old
POS
and
County
East
World
MD
Justice
Sunday
Gold
(
)
TO
UH
VBN
Van
White
PRP
I-INTJ
JJS
Centre
THE
University
ST
Port
City
State
Public
Federal
School
Union
Court
Queen
Street
Home
NEW
Bank
High
!
$
2
:
A
telling
F
1000
a
21st
bypass
Hamlet
LEAGUE
Industrial
''
CPI
310
11
76
96
DAY
Ten
4.0
My
On
Consumer
Seven
Yellow
no
January
Championship
12th
Third
championship
Final
Cultural
winners
Tour
OPEN
law
n't
convention
1990
1998
1997
1996
1993
1992
SERIES
Second
TOURNAMENT
DIVISION
March
WORLD
against
Prices
Five
AFRICAN
Winners
Men
flight
CHAMPIONSHIP
INTERNATIONAL
program
serie
Greater
1,000
Series
Pro
Year
Index
President
NATIONAL
Baseball
100
150
Trading
162
RALLY
Major
Price
RP
I-PRT
WDT
Golf
95
OF
Tennis
PRP$
GOLF
Peace
GRAND
Grand
Afrikaners
SUPER
"
I
van
An
Jr
Mr
WRB
I-LST
Cotti
Jansher
Jan
Date
BONDS
Key
Spot
May
Max
Cash
King
SPOT
Per
Such
Prince
Sen
Green
Little
Mother
Spring
5
coast
Sea
31
80
Prairie
90
north
hospital
free
Former
Church
Stadium
Our
Long
Lord
RBS
2,000
Most
SDA
Chester
SEC
Neuchatel
T&N
Minerals
Amtrak
Universitatea
Res
Collstrop
Crewe
Popular
Coruna
BNP
BOJ
Livingston
Bradford
Springboks
Wigan
Gazprom
Collingwood
Salomon
Darlington
Norwich
Kosice
Rennes
Ayr
Stoke
Airdrieonians
Porto
Ferencvaros
Millwall
Bournemouth
Allensbach
Cleveland
Twente
Bielefeld
CDU
Swebus
Rouge
CFDT
Atalanta
Eagles
Cardinals
Gazeta
Arch
Giants
Arequipa
Radnicki
CME
Glamorgan
Yorkshire
Sox
Hearts
Sparta
Samsung
Mariners
Brighton
CSU
Bury
Penrith
Hizbollah
Reading
TVM
Gillingham
TWA
CVG
Caltex
Liverpool
F.C.
Enschede
Tigers
Pusan
Braves
Montpellier
Americast
Duisburg
Securities
Oldham
Arbroath
Bureau
Walsall
AB
AC
AG
SOLIDERE
Bromwich
AZ
BJ
Co
Carlisle
EC
Auxerre
EU
FK
Chor
JC
Padres
LE
LG
Journal
Hajduk
Belchatow
Gloucestershire
ND
OB
OM
Nyva
Rabobank
Mentmore
Mets
Metz
EgyptAir
SK
SV
UN
Barnet
Nottinghamshire
Cukaricki
DKBA
Nice
Khmer
Sittard
Gruppen
Puchon
RTRS
ORIOLES
Slough
Arrows
Kerkrade
Watford
EOE
EPR
Douglas
ETA
Chonnam
Real
Tanjug
Globo
Sutjeska
PULPEX
Rockies
Reds
WSRL
Hutnik
Tankan
Kispest
Cowdenbeath
Brewers
Revolutionary
Tottenham
Comelf
Haitai
VfB
VfL
Assembly
Tranmere
Vojvodina
Emnid
Sakigake
Poznan
Monetary
Leyton
Manly
Middlesex
Somerset
POST
Worcestershire
Expos
Treasury
Burnley
Standard
Organisation
Kekkila
Graafschap
Zemun
Daewoo
Interpol
LTTE
Fitzroy
Grasshoppers
Tilburg
Lenzing
Partick
Clyde
Dinamo
Helens
Rovers
Corporation
Lech
Deportivo
GKS
Times
Duesseldorf
Dacom
Kikinda
Arsenal
Rapid
GPG
Banespa
Lens
Advanced
Peterborough
Telekom
Bolton
Corp.
Shrewsbury
Tyrrell
WorldCom
Hereford
Transportation
Reuters
Fiorentina
Systems
Schalke
Widzew
Southend
Inc.
Warrington
Promodes
Commodities
Zenith
Brann
IMED
Niugini
Orient
Newsroom
Movement
Amica
Torpedo
Rangers
U.N.
Fulham
Boatmen
Dynamo
Charity
UNION
Newsdesk
Marlins
Ligier
Hansa
INA
ING
Dortmund
IOC
Itar-Tass
Royals
IRA
Sauber
Lille
Castleford
Liberation
Aaxis
Essendon
Brentford
Northamptonshire
Genoa
Molenbeek
Juventude
Hamas
Bamerindus
Arminia
Suwon
Spartak
Repsol
Heerenveen
Mapei
Jays
Democracy
Benfica
Richmond
Force
Inc
Mirren
Institute
Lyon
Werder
Orioles
Leicestershire
Pirelli
Kent
Benetton
Microsoft
Hanwha
Footscray
Anyang
Companion
Yamaha
Proleter
KDP
Barnsley
Orii
Athletics
College
Gencor
Twins
Fortuna
Chonbuk
Holdings
Eelam
Oriente
Volkswagen
Sunderland
Airlines
Moenchengladbach
Carlton
Halifax
USDA
Unita
Nantes
Corp
Krakow
Notts
Chonan
Housecall
Blue
Dodgers
SunGard
Brush
Berlex
Adelaide
Energy
Middlesbrough
Bulldogs
Waalwijk
Postal
Swindon
Ajax
Grimsby
Willem
Escravos
Sloboda
Warburg
Sporting
PUNR
Penn
Mladost
Katowice
LME
Newcrest
Praha
Mostostal
Phillies
Buducnost
Patriotic
Celtic
Authority
Newcastle
Torquay
Ericsson
Startup
Wolverhampton
Fife
Sussex
Zastava
Karlsruhe
Interfax
Bochum
OSCE
Lockhart
Tass
MDS
MFS
Front
Treasuries
Queens
Huddersfield
Alkmaar
Blacks
Basketball
Shell
Utrecht
Viktoria
Hapoel
MQM
Derbyshire
Rostock
MSV
Leverkusen
Cofinec
Mercantile
Ltd
Cross
Softbank
Ekeren
Lomason
Juventus
Reynard
Exeter
Xinhua
Cooperation
FIFA
IRNA
NAC
Partizan
Mining
NBH
JOURNAL
NCB
Parma
Aberdeen
Caen
Pohang
Alba
Wronki
Suburbs
Atletico
NLD
Party
Petofi
Odra
Hartlepool
Lancashire
Greenock
Luton
Humenne
Senate
Credit
Geelong
Dumbarton
Vitesse
Faulding
Stenhousemuir
Boys
Inter
Stranraer
SPLA
Fremantle
Alloa
Municipal
Astros
OFK
Slovan
Pauli
Nijmegen
Ssangbangwool
Amoco
Desk
ICAC
Guingamp
Tychy
Sachs
NATO
Raith
Motorola
Ipswich
Sport
Cargill
Roda
Mansfield
Forfar
Hawthorn
Barrick
Cannes
Cargo
Petrosani
Marseille
JavaSoft
Oak
Paribas
Clydebank
Wodzislaw
CNIEC
Berwick
Slask
PKK
Stagecoach
PLO
CSKA
Rochdale
Parramatta
Elect
Blackpool
Merrill
PSG
PSV
PTT
PUK
Chemlon
Sokol
Stockport
Loznica
Legia
Biogen
Scarborough
Kawasaki
Cubs
Brugge
Metro
Bahia
Plymouth
Ducati
Lodz
Rotor
Obilic
Stirling
Wycombe
Plc
Bayer
Hyundai
IVAC
Albion
Star
Everton
Crystal
Palmans
Becej
Ballybunion
Warwickshire
Swansea
Borussia
Kilda
Aston
RBA
Rights
Jiul
Brechin
Communications
Germain
ABC
ACC
RDR
Wrexham
Statistics
LIFFE
Mercedes-Benz
Agency
Bayern
Board
Yankees
RKC
Missionaries
Insurance
Feyenoord
AOL
Workington
ARC
Bastia
Magna
Graz
Yedioth
Honda
Arnhem
Rudar
Lokomotiv
Scunthorpe
Hull
Borac
NationsBank
Coventry
Rotherham
SBC
Rad
Illawarra
Indonesian
Ford
Thai
BSE
Conference
Republican
Democratic
Rican
Rally
Ferrari
Korean
Democrat
Convention
Exchange
Committee
Indians
TM
VW
System
Battle
Swiss
Dow
Doncaster
Eastern
Internet
Welsh
Communist
Ukrainian
American
Fed
Subaru
Labor
Mitsubishi
Mexican
Petroleum
Asian
Southern
Association
Irish
Democrats
Universe
Polish
Golden
Toyota
Names
Nepali
Reform
Office
Commission
Kurdish
NEC
Palestinian
Jordanian
Dutch
UEFA
European
SIMEX
Lebanese
Aviation
Monde
NATIONS
McLaren
Japanese
Labour
Congress
Australian
Catholic
COMEX
Scottish
Treaty
Nations
Porsche
RBI
Liberal
S&P
Romanian
ATP
Bosnian
Games
Miss
Law
Brent
Christian
Bonds
Jones
German
Karen
San
Sierra
Costa
North
Hong
Louis
Poland
Western
Red
CHICAGO
Arab
St.
Kong
Australia
AL
Basque
La
France
KONG
Middle
London
Wimbledon
Football
United
Russian
U.S.
South
British
Czech
Milwaukee
Bombay
MILWAUKEE
Trax
Indian
Texas
Los
HONG
States
Beograd
Leeds
Chicago
African
Tamil
Africa
California
Oklahoma
Independent
French
India
Saudi
Atlanta
Islamic
Iraqi
Super
Castilla
Aki
Keane
Tiger
Brooks
Sun
Baker
Lehman
Lloyd
Villa
Petra
Al
D.
Le
Ruch
Dan
Der
Johnstone
Post
Goldman
Sheffield
Vale
Hanson
Vicente
Sion
Gloria
Chelsea
Fox
Leon
Philip
Dole
Durham
Chong
God
Edward
JOHNSON
Stanley
Warner
Power
Reagan
Lynch
Young
Morton
Edwards
Miguel
Les
Liu
Mills
Pirates
Charlton
Blackburn
Wellman
Morris
Nancy
Stadler
Cruz
Moody
Polonia
Williams
Gingrich
Marion
Taylor
Lotte
Ross
Santos
Dundee
George
Wood
Robert
Love
McCarthy
Thomson
Diego
Wall
El
Hamilton
Royal
W.
Angeles
Washington
Lincoln
Johnson
Park
Preston
Jordan
Boston
Toronto
Milan
Paris
Paulo
Francisco
Arthur
Roosevelt
Houston
&
CLEVELAND
Barcelona
Balkan
Rio
Volgograd
Angels
PHILADELPHIA
BARCELONA
Bristol
Jerusalem
Mountain
Miami
Greece
Athens
Amsterdam
Abbey
Sao
Rwanda
Bay
JERUSALEM
Columbia
Philippine
Florida
Cologne
Spain
Pacific
China
Nepal
Amazon
Chesterfield
Tel
Seattle
Finland
Zabrze
Michigan
DE
Cyprus
Tokyo
Brazil
Inverness
EL
DETROIT
LA
Frankfurt
NZ
St
UK
US
Alaska
Trust
MONTREAL
Strasbourg
Bordeaux
Saskatchewan
TORONTO
River
Dublin
Chorzow
Warsaw
Melbourne
NICE
Zealand
CALIFORNIA
England
Valletta
Salzburg
Surrey
Colorado
Bucharest
VALLETTA
ANGOLA
CITY
Northampton
Cincinnati
Colombia
Eindhoven
Zimbabwe
House
COLORADO
Stockholm
FRANCISCO
Pakistan
Aviv
Southampton
Sudan
Taiwan
Canberra
Coast
Baltimore
Philadelphia
Akron
Federation
Indonesia
Antwerp
Istanbul
ATLANTA
Japan
Commonwealth
FLORIDA
Mexico
Colchester
Detroit
Pennsylvania
Doetinchem
Kurdistan
Monaco
America
Buenos
Atlantic
Arkansas
UNITED
Prague
Essex
Cardiff
Europe
Hamburg
MINNESOTA
Kansas
Singapore
Romania
Massachusetts
Stuttgart
Auckland
Taibe
KANSAS
Minnesota
MILAN
Beirut
Sydney
Bratislava
TEXAS
Volendam
York
ANGELES
Manchester
Linz
Palace
SEATTLE
Sofia
CINCINNATI
Nottingham
Ulsan
Canada
Vienna
Georgia
Shanghai
Iran
LOS
Oxford
YORK
Aires
Vermont
Bremen
Moscow
Nigeria
Leicester
Damascus
Ireland
Algeria
Charleroi
Breda
Karachi
Jakarta
Rotterdam
Groningen
BOSTON
Wroclaw
Illinois
Kiev
Zurich
Venezuela
LOUIS
Belgrade
OAKLAND
Birmingham
Brisbane
Seoul
Road
Fla.
Austria
JAKARTA
Bangladesh
Montreal
BALTIMORE
Madrid
Forest
Cambridge
Lebanon
Luxembourg
Munich
PITTSBURGH
Ottawa
Bridge
Liege
Havre
Portsmouth
MANCHESTER
Budapest
DIEGO
Bistrita
Queensland
Larnaca
Freiburg
Bulgaria
Oakland
Taipei
Kabul
Germany
HOUSTON
Petersburg
Pittsburgh
Dhaka
Hampshire
Liberia
Hungary
SAN
Israel
Formula
Greens
Avonex
Arabs
Airbus
Malaysian
SPANISH
Moslems
Lankans
Italian
Serb
Serbs
Belgian
Canadian
Brazilian
CUP
Argentine
Classic
Croatian
Prize
Americans
DEM
A$
Moslem
C$
Celsius
Dm
Iraqis
Olympics
US$
Hutus
Chilean
Day
Turkish
Swedish
al
Arctic
et
ERA
KOREAN
Republicans
Kurds
Austrian
Impreza
Cuban
Albanian
Lankan
Taleban
Medicare
Olympic
GMT
Syrian
GTR
Toshiba
Maoist
ADRs
POLISH
Libyan
Portuguese
Latin
Prix
Helibor
Championships
HK$
FTSE
AMERICAN
U.S.-led
BELGIAN
TOSHIBA
CLASSIC
post-Soviet
Israel-PLO
BRITISH
PRIX
Greek
Angolan
Slam
Algerian
Norwegian
Kurd
Escort
Celica
Java
Nigerian
Nobel
Serbian
Frenchman
EASTERN
Bulgarian
Bosnians
TOUR
CANADIAN
Guinean
Zairean
Euro
GERMAN
Spaniard
Burmese
Titanic
DUTCH
Tibetan
Tunisian
Africans
Palestinians
CENTRAL
Betaseron
NETHERLANDS
Kadian
LAKES
Nikkei
Israeli
Jews
ENGLISH
Masters
Yugoslav
Moroccan
Nazi
Islamists
Egyptian
FRENCH
EUROPEAN
Kalashnikov
English
Chechens
MASTERS
Danish
Regulation
York-based
Tamils
PGA
HAMLET
Hungarian
Afghan
British-based
Nasdaq
SCOTTISH
Russians
MAJOR
Islamist
Sudanese
Swede
Bundesliga
Eco-Challenge
Israeli-PLO
Mission
CAC-40
Briton
Nicaraguan
Ivorian
Israelis
Lancer
ITALIAN
Chinese
Colombian
Edouard
Ai
Windows
Millns
Rene
Hill
Collins
Bill
Jackson
Brady
Michael
Finn
Jerry
Lewis
Alex
Carl
Lawrence
Anne
Singer
S.
Hall
Davis
Roman
Morinville
Sri
Iranian
USA
Gulf
BRUSSELS
Newbury
Far
Chechen
WESTERN
Pakistani
Sarajevo
Republic
Berlin
Netherlands
BERLIN
Slovak
Soviet
Lakes
Brussels
Arabia
AFRICA
Switzerland
Hutu
Cup
Jewish
Spanish
Rwandan
COUNTY
Ray
Freeman
Jalal
Gerhard
Anwar
Ekeus
Gary
Johansson
Curran
Joakim
Brandes
Wiesner
Richard
Giovanni
Bourlet
Ali
Sabatini
Ezinwa
Amr
Roe
Bossi
Dirk
Ann
Iliescu
Boutros
Gaudenzi
Sean
Fischler
Sven
Nicolas
Asa
Whittall
Rui
Ato
Nilis
Stefan
Dennis
Hooper
Ramon
Maskhadov
Ruutel
Habsudova
Danny
Steffi
Luehrs
Bobby
Knup
Francesco
Javier
Villeneuve
Sam
Voinea
Oscar
Gustafsson
Pedro
den
der
Simon
Angel
Federico
Lennart
Nolan
Heath
Nestor
Kenneth
Darren
Devers
Johnny
Brooke
Conte
Stewart
Rosset
Mutola
Ferrigato
Gabriela
Fairbrother
Andrews
Peter
Bob
Magnus
Kohl
Lamm
Sergi
Anderson
Florian
Wang
Oncins
Mariano
Suu
Ludwig
Gujral
Dalglish
Woodforde
Kijimuta
Dimitris
Kennedy
Bruguera
Evert
Wolfgang
Mantilla
Rosati
Smith
Christie
Younis
Haarhuis
Cal
Frederic
Rifkind
Gephardt
Chen
Walter
Ricky
A.
Moura
Cea
B.
Malik
Andreas
C.
Svetlana
Soren
Rabbani
Tim
Tauziat
Eefje
De
Gaddafi
G.
Montgomerie
Larry
H.
Asif
I.
Ijaz
J.
Tom
Natalia
K.
Markov
M.
Graham
Stefano
Corser
Li
Meri
Abdul
P.
Ouedec
Goosen
Fleurian
R.
Po
Sharpe
Alami
T.
Flemming
Grobbelaar
Sainz
Scott
Sharif
V.
Makinen
Fred
Markus
Randall
Alain
Oliver
Michelle
Boardman
Kaluwitharana
Raphael
Richey
Jonathan
Schumacher
Fredericks
Nick
Netanyahu
Chiate
Olga
Anthony
Mulder
Albright
Masood
Daschle
Eales
Ruth
Magdalena
Huber
Mayfair
Kafelnikov
Eddie
Miller
Azharuddin
Jimenez
Frankie
Don
Karina
Koerts
Woosnam
James
Yalcin
Inzamam-ul-Haq
Bernardin
Shah
Waqar
Wilson
Sanath
Bonilla
Salisbury
Gajdos
Medvedev
Mehrtens
Ronaldo
Demel
Dubnicoff
Faure
Julian
Natalya
Filip
Foster
Barzani
Stephanie
Saddam
Aravinda
Roger
Chamorro
Abdul-Karim
Lawrie
Blakey
Pires
Adam
MaliVai
Donald
Kuchma
Vaas
Kevin
Westhuizen
Akram
Maleeva
Costas
Els
Megawati
Luis
Lomas
Joel
Shearer
John
Lupu
Annett
Sorensen
Boldon
Lauck
Oliveira
Ricardo
Quigley
Fogarty
Townsend
Lanusse
Hidemichi
Broadhurst
Stephen
Helena
Moxon
Olsza
Magali
Guzman
Takemura
Arnold
Heinz-Harald
Patrick
Witschge
Tomas
Akbel
Korda
Foe
Veldman
Carlsson
Mubarak
Weld
Grant
Barrichello
Pantic
Coltart
Davies
Antonio
Mahanama
Wasim
Levy
Ponting
Eduardo
Reneberg
Stenning
Sandrine
Eric
Hoddle
Tommy
Erik
Tommi
Lindsey
Michel
Xiao
Kontogiannis
Viktor
Karbacher
Natasha
Vicario
Hussain
Gurusinha
Lindsay
Hassan
Joyce
Johan
Thiel
Marriner
Corey
Atherton
Vladimir
Ryutaro
Yevgeny
Jacques
Mike
Mika
Paul
Nicole
Mind
Henman
Doug
Simpson
Estes
Jarmo
Wouden
Sukova
O'Brien
Ryan
Conchita
Lietti
Guy
Clayton
Arjuna
Julia
Palmer
Julie
Niall
Weaver
Irina
Ranatunga
Neumann
Joseph
Edgar
Gilford
Haj
Hal
Patricia
Alesi
Volkova
Linda
Tortelli
Reiffel
Ferreira
Thorpe
Sidhu
Greer
Fowler
Kubo
Shane
Woods
Arantxa
Jack
Flower
Raichev
Olivier
Carter
Waugh
Ronald
Todd
Knight
Alexander
Leander
Klinsmann
Leonard
Wilde
Naina
Kotlarska
Jana
Jane
Jans
Tony
Moyer
Edberg
Ballanger
Clinton
David
Cedric
Salim
Rikl
Ulihrach
Coetzer
Ian
Rios
Terry
Panis
Jayasuriya
Juergen
Mushtaq
Rita
Ripken
Tillekeratne
Jesper
Stuart
Zhirinovsky
Waldorf
Marty
Bhutto
Woodbridge
Laurence
Rodney
al-Kabariti
Keith
Kemp
Teresa
Riley
O'Neal
Nyerere
Gavin
Teutenberg
Mikael
Tatyana
Frentzen
Botham
Benes
Hingis
Suharto
Padraig
Nicol
Drew
Glenn
Cocu
Novak
Jay
Museeuw
Puig
Miltiadis
Ata-ur-Rehman
Cunningham
Norman
Liam
Barry
Damm
Colonna
Jim
Bohdan
Jonzon
Gooch
Talabani
Hicham
Armstrong
Aziz
Slight
Blair
Antoine
Joe
Jon
Derek
Rodriguez
Adrian
Aslan
Will
Cork
Fernandez
Lebed
Philippe
Bunce
Yeltsin
Dave
Laurent
Martina
Lisa
Jason
Rubens
Marchal
Lopez
Novotna
Chang
O'Meara
Gonzalez
Mohamed
Crohn
Bruno
Adams
Croft
Owens
Gianluca
Chris
Thatcher
McAllister
Walker
Coulthard
Masterkova
Giles
Majoli
Sanchez
Newcombe
Hussein
Russell
Ken
Bernard
Chernomyrdin
Duran
Marco
Mitchell
Davenport
Carlsen
Mario
Jackie
Muster
Kim
Tendulkar
Willie
Honiball
Linhart
Yasser
Pete
Steve
Petr
Martinez
Juha
Yassin
Justin
Ahmed
Hoch
Harrington
Maynard
Banisadr
Glen
Hogg
Machado
Kyi
Benjamin
Saqlain
Batistuta
Pablo
Tang
Juppe
Jimmy
Samokhalova
Hope
O'Neill
Specter
Akam
Lee
Sosa
Fine
Prescott
Andersson
Lambrecks
Sarah
Martin
Brunswijk
Harte
Miles
Mokhoff
Jean
Glyn
Smicer
Francis
Naoko
Retief
Hatoyama
Mauro
Pollock
Kelly
Jeff
Hakkinen
Hekmatyar
Marshall
Derrick
Joost
Westwood
Ludmila
Tillstrom
Bailey
Dekker
Ekimov
Eriksson
Simmons
Wayne
Jens
Loren
Ronnie
Marcus
Kytolehto
Talbott
Fulton
Simitis
Kwasniewski
Rangarajan
Fitzpatrick
Capiot
Rohrabacher
Ivanisevic
Breukink
Enqvist
Engquist
Judith
Gilbert
Stevanin
Anders
Jean-Paul
Alan
Brundle
Boer
Hedblom
Slater
Jonas
Geraghty
Mia
Alec
Erdmann
Moin
Gronholm
Thomas
Erbakan
Seles
Billy
Farrakhan
Donovan
Corretja
Vogts
Penrose
Hollioake
McEwen
Mohammed
Streak
Vaughan
Berasategui
Arafat
Joubert
Mohammad
Helmer
Daniel
Skandalidis
Phan
Ischinger
Cozma
Buhner
Sergei
Kocinski
Ferguson
Campbell
Dean
Kornblum
Necmettin
Karol
Buyoya
Degryse
Diana
Nixon
Howard
Phil
Berry
Parnevik
Clarence
Stricker
Ducruet
Moore
Bernd
Craig
Garcia
Philippoussis
Ames
Kankkunen
Kimberly
Prasad
Tsang
Allen
Scifo
Weinstein
Andrei
Andrea
Garrity
Christophe
Duncan
Headley
Marcelo
Dharmasena
Andrew
Allan
Kenny
Harrison
Glickman
Haas
Nathalie
Hasina
Pavel
Takeda
Quinn
Haga
Michele
Samper
Fleming
Henke
Brian
Toure
Goydos
Chandana
Stich
Rolf
Weizman
Tutu
Bakker
Henry
Mujtaba
Sary
Gore
Rose
Elena
Rashid
Albert
Andy
Aamir
Frowick
Goran
Ivan
Mullally
Chapman
Ibrahim
Kevorkian
Anke
Aleksandra
Jesse
Viljoen
Garang
Thompson
Palkhivala
Amanda
Djorkaeff
Orr
Berger
Frater
Melissa
Pierre
Jesus
Evans
Rubin
Karim
Ieng
Testud
Jeffrey
Odnosum
Ruben
Ciller
Kucera
Rocca
Zvereva
Fernando
Pat
Brad
Ottey
Perry
Donghai
Pinas
Silva
Klas
Yihye
Sharetsky
Tarango
Vacek
Monica
Rafter
Dostum
Carling
Felicia
Costantino
Pyman
Gough
Strang
Anton
Saeed
Pol
Aoki
Basuki
Pot
Krajicek
Banharn
Murray
Loko
Ruehe
Shimon
Stoltenberg
Curtis
Duffy
Crawley
Fraser
Marc
Mark
Mary
Sandra
Matt
Tapie
Mats
Stallone
Popov
Healy
Linford
Kimiko
Muralitharan
Cyprien
Raymond
Irani
Moreau
Ozers
Moada
Jiri
Hendrix
Yoshikawa
Terence
Bevan
Stephane
Kinkel
Gastel
Karlsson
Buffett
Gilbertson
Lukashenko
Coceres
Eyles
Vyacheslav
Blind
Davidson
Robinson
Jorge
Neil
Gabriel
Zinzan
Felix
Colin
Dutroux
Courtois
Hashimoto
Frank
Alberto
Franz
Heeswijk
Herbert
Merlene
Andre
Reeve
Bertram
Graf
Boris
Kabariti
McCurry
Yastrzhembsky
Tanya
Damon
Greg
Bedie
Gatera
Massoud
Peres
Pioline
Perot
Milosevic
Collinelli
Agassi
Chandra
Sampras
Roberts
Drummond
Roberto
Mickelson
Jean-Michel
Sohail
Gail
Lance
Gibbs
Dick
McGrath
Abu
Ben
Florence
Allenby
Chad
N.
Mo
Wells
Matthew
Nelson
Virginia
Charles
Jose
Brown
Hospital
Barbara
Turner
Kingdom
Christopher
Island
Kan
William
Maria
Juan
Troy
Khan
N.J.
Colombo
Field
Karin
Carlos
Wolf
Carlo
FRANCE
SEA
Kremlin
TOKYO
Afghanistan
Islands
Morocco
Estonia
Gaza
SRI
BEIJING
DELHI
AMSTERDAM
Sweden
Wisconsin
MADRID
Ankara
TUNIS
Kuwait
Albania
Serbia
WARSAW
AUSTRALIA
Arbil
U.S
Orvieto
Norway
Argentina
Zambia
Congo
BUENOS
Azerbaijan
Mahala
AUSTRIA
Chile
Belgium
UAE
Kashmir
KUALA
Vaduz
DUBLIN
Tripoli
Slovakia
WELLINGTON
Stansted
Worcester
LONDON
HK
Guinea
Delhi
Malta
COMMACK
Algiers
Abuja
FRANKFURT
COLOMBO
Eritrea
Bosnia
MELBOURNE
Ocean
Tajikistan
Nairobi
ENGLAND
BANGKOK
CAIRO
ANKARA
ATHENS
Mauritius
Dayton
Tehran
Reef
AKRON
Tunbridge
CARLSBAD
Chechnya
Gatwick
SARAJEVO
Sakai
ZIMBABWE
Trinidad
Wellington
PAKISTAN
Square
Tirana
Riyadh
GENEVA
LUMPUR
Namibia
Ukraine
Jamaica
VIENNA
Ethiopia
JYVASKYLA
Baghdad
Korea
Cairo
Trent
Trafford
Mauritania
JOSE
Bogra
Neths
Turkey
Islamabad
BAGHDAD
Edgbaston
Midwest
Tianjin
Panama
Geneva
STANSTED
Headingley
Kosovo
Cambodia
Syria
Mideast
Longyear
SOFIA
Rica
Togo
TALLINN
HELSINKI
PRETORIA
Missouri
Michoacan
Gabon
Yugoslavia
Town
LAGOS
TIRANA
Corsica
MEXICO
Seychelles
Liechtenstein
Armenia
Ramallah
Manila
AIRES
Benin
AMMAN
DUBAI
Slovenia
Moldova
TOWN
ROMANIA
Croatia
Calcutta
Surabaya
Mozambique
Lithuania
PARIS
BOGOTA
Salang
Surinam
Burundi
Iraq
Grozny
Peru
Senegal
NAIROBI
Ecuador
Tibet
Bangkok
Bahamas
Amman
Malawi
Tunisia
ZEALAND
SEOUL
Thailand
WASHINGTON
Lahore
Denmark
Balkans
Vatican
Johannesburg
SYDNEY
Italy
Caribbean
Salvador
BRASILIA
Leduc
NORTHAMPTON
Cape
Bonn
Angola
BELGRADE
MOSCOW
BOMBAY
Belarus
Barentsburg
Libya
Oval
H.K.
LANKA
BUCHAREST
Tavildara
Nicaragua
Wales
BRAZIL
Doboj
CAPE
BONN
Zvornik
GLASGOW
Rome
Rangoon
Spitzbergen
INDIA
Khartoum
DHAKA
Uganda
Zaire
Jersey
Karak
Russia
MANILA
Cuba
ROME
Heathrow
Lanka
JOHANNESBURG
Prairies
KATHMANDU
Chester-le-Street
LISBON
MIAMI
Nagorno-Karabakh
Faroe
BUDAPEST
Burma
Kenya
Malaysia
Scotland
Ohio
Portugal
Latvia
Beijing
Bogota
Kandahar
Britain
Yemen
STUTTGART
SHANGHAI
SINGAPORE
Calif.
Egypt
Guerrero
MT
SPD
FDP
PDS
1.3642394921468604
1.4975256723295418
1.287187821746144
1.8409970596381136
0.8041283161263721
1.3041037972831968
1.8452388887682674
1.3041037972831944
1.9068414199437402
1.8948025654999945
2.106942343758761
2.8152688110662845
0.814068547071423
0.8041283161263721
1.8626441516789407
0.8098564360552752
1.9378143064532274
0.809194652286555
0.8319971300101037
0.8041283161263865
0.8150488717074887
1.8856818545232936
2.012614914444322
1.8636643339554275
3.054500028758796
1.3041037972832048
4.584042884842778
1.3041037972831948
5.2212742068534945
5.221274206853499
5.2212742068534945
1.6470794608553858
1.7048122070949592
1.544252580019058
1.3515816130971496
1.3041037972831901
1.304103797283203
1.9298137770874242
5.221274206853501
5.221274206853497
5.221274206853497
1.304103797283193
1.8657405021313564
1.9387134269572681
1.9477016294809566
1.3999655085303067
1.9101025719653482
1.753736837382736
1.906841419943727
1.9068414199437427
1.8773174442025573
1.3041037972831975
1.815049486879961
1.9444649194832822
1.830454491707304
1.6039636331036036
1.304103797283193
3.0424386080702486
1.304103797283193
1.7482024848801545
1.977250202489583
1.982715083905293
1.3954988694230717
1.751933805791917
1.96490759390636
1.7587218466831132
1.7509308332236595
1.9378143064532294
5.221274206853497
1.7509308332236566
1.757458486852807
1.9378143064532283
1.800629029133044
1.2871878217461366
1.9935916952854131
1.3733296075921153
4.904643010573836
1.406386792531571
1.287187821746137
1.9378143064532294
1.304103797283197
1.4385429799225
2.077648774719438
1.8304544917073002
5.221274206853497
1.287187821746139
1.9738301502569635
1.304103797283203
1.8345953529715466
1.3041037972831975
1.287187821746141
1.2871878217461388
1.7509308332236586
1.3041037972831957
1.7513575441326679
1.7528566611486778
1.7417266286102309
1.3805533643949137
1.4255454841770439
1.3562233320895087
1.304103797283194
1.2871878217461465
1.3041037972832028
1.91010257196535
1.3041037972831986
1.488424576871949
1.7703846571702613
0.8947046833532942
1.95482512031707
0.8041283161263791
1.4742909999323566
1.8471803270369644
0.8041283161263686
1.339894616291154
1.2871878217461379
1.3041037972831957
0.8041283161263708
0.8041283161263708
0.8041283161263721
5.056498304054191
1.2541089275399162
1.750930833223658
0.8041283161263708
1.2871878217461357
1.3041037972831986
1.3041037972831961
1.8006290291330513
1.4202573000619478
1.2871878217461357
1.9199878390167116
0.8041283161263721
0.8041283161263759
1.287187821746134
1.1233764692081805
1.892666261156665
1.3041037972831961
1.8227475389445804
1.3041037972832041
1.7509308332236586
2.008991076896236
0.8041283161263721
1.2871878217461414
1.3655851655305602
1.3041037972831961
0.8041283161263721
1.8006290291330471
1.3041037972831957
1.0912039564512583
1.304103797283197
0.8041283161263708
1.2871878217461328
1.9378143064532294
2.0509847741616634
1.4130290615554992
0.8041283161263727
2.0169003664513037
1.2871878217461419
1.5001902818333757
1.3041037972832012
1.7546116027595349
3.793276086205781
1.3041037972831981
0.8041283161263708
1.7527080057482414
1.287187821746137
0.8041283161263721
1.9976225955466538
1.3041037972831897
1.8006290291330433
1.5073814023252277
1.2871878217461419
1.3041037972831957
1.9243902283412393
1.3358977233692992
1.7159721051673869
1.871816950239874
1.2871878217461357
0.804128316126381
0.912991733485813
1.3041037972831948
1.2871878217461328
1.356389981205098
1.7541983346096723
0.8041283161263727
1.304103797283197
1.4426594544113707
1.8377008672373005
1.7540191299773449
1.7549489173760398
1.7906193879002288
1.3041037972832068
1.2871878217461414
1.4700491211625972
1.3956078090479558
0.8041283161263727
1.3733296075921133
1.8121222945142599
1.4034908507179078
1.3041037972831944
1.3041037972831948
1.2871878217461439
1.5000076619433804
1.8304544917073002
1.8304544917073002
1.9378143064532334
5.077757586819434
0.8041283161263708
1.7509308332236566
2.260326945007978
1.8304544917072991
0.992525362332346
1.5403217523179065
1.3041037972831975
1.3041037972832024
1.937814306453233
1.3041037972831961
1.8159954242733685
0.8041283161263687
0.9925253623323492
1.726271210362047
1.3041037972831975
0.8041283161263708
1.2871878217461346
1.304103797283201
1.9976225955466613
1.6599887461661893
1.287187821746146
1.5690690058026167
1.7537294375619508
1.97473787365491
1.574054834286518
1.7817722336223905
1.7048122070949558
1.3269188667858183
1.8139985042318707
1.8304544917072991
1.9024783580226712
1.291441109732643
1.2871878217461357
1.2871878217461357
1.3041037972831986
1.9378143064532283
1.7618996768162762
2.016691736147752
1.75872184668311
1.7426987912244714
1.9378143064532283
1.910102571965342
1.304103797283197
1.304103797283197
1.8006290291330505
1.7587218466831154
1.3041037972831928
1.2871878217461328
1.3041037972832075
0.9657632698804693
1.830454491707306
1.3041037972832008
1.3041037972831981
1.9523252937364834
1.997622595546654
5.1482766709020025
0.8041283161263721
1.7587218466831118
0.8041283161263721
0.8041283161263708
1.304103797283197
1.5130312233209529
1.7560987421007381
1.3041037972831961
1.9193793943259976
0.8041283161263721
1.304103797283197
1.936546707628015
1.910102571965344
0.8041283161263721
0.8041283161263721
1.9360174324170067
1.2871878217461366
1.2887363633483166
1.2871878217461414
1.9378143064532294
1.3041037972832084
1.8006290291330433
1.3041037972831961
1.3041037972831957
1.3041037972831948
0.8041283161263721
1.7543645740055431
1.8045643266727232
1.2871878217461414
1.3476991374171365
1.304103797283197
5.221274206853499
1.755554414397183
1.3041037972831928
1.2871878217461419
1.2871878217461366
1.9378143064532294
1.304103797283197
1.3041037972832015
1.9378143064532294
1.304103797283195
1.3434877377931256
1.9378143064532294
5.221274206853497
1.2871878217461377
1.304103797283197
1.3041037972831981
1.9926463629212146
1.8036732695656366
1.967351166150716
1.304103797283203
1.3843578953189102
1.830454491707306
1.6662586840546347
1.8695600166480133
1.860288647148399
1.751924907241421
1.3188198456046316
1.8444092621907175
1.8647058823771487
1.3358977233692992
1.5544628610609776
1.4700491211625895
1.9896481376783528
1.3041037972831957
1.3041037972831957
1.388913737303473
1.3041037972831975
3.653643176098666
1.3041037972831957
1.287187821746137
1.9083251816419615
0.8041283161263721
1.6936238406344775
0.8041283161263771
1.2871878217461377
1.9461179188469582
1.3315532729709771
1.304103797283197
1.937362750361136
1.7515455229830768
1.304103797283197
0.8041283161263708
1.3041037972831961
1.8707029083834679
1.6027534675655748
2.065495575286871
1.9190803324579235
5.221274206853497
1.3041037972832041
0.8041283161263747
1.9280876344624716
1.3041037972831975
1.3803518219693927
1.3041037972831946
1.4302184910635325
1.5438050899631885
1.3041037972831893
1.910102571965345
1.287187821746139
1.3041037972831928
1.2871878217461328
1.9378143064532274
1.3653349635383358
1.287187821746139
1.3041037972832041
1.3041037972831961
2.3093726975918485
1.647079460855386
1.6476717155013705
1.3041037972831981
1.7200550771432297
1.3041037972831928
1.8304544917073002
1.3977595610410147
0.8041283161263721
5.221274206853498
1.4884245768719522
1.051724226174646
1.8647058823771443
1.130304312539957
2.7830350754078745
1.7528566611486778
1.3041037972831917
1.304103797283197
0.873076254435312
1.6476717155013618
0.8041283161263721
1.8321755393697379
1.3041037972831961
1.2871878217461439
1.7555731949345632
1.815049486879959
1.8304544917073102
4.904643010573836
1.2871878217461377
1.5633611459338208
0.8041283161263708
1.7541486173500267
0.8041283161263717
1.304103797283197
0.8041283161263717
1.304103797283197
0.8041283161263721
1.3041037972831948
1.9068414199437358
1.5496399122904436
1.287187821746144
5.2212742068535025
1.770303264963427
1.3041037972831884
1.796249625898053
1.304103797283197
0.8041283161263708
1.3041037972831981
1.3041037972831917
1.6726659293039698
1.8006290291330445
1.9760692522748586
4.435974576997575
0.8041283161263687
4.435974576997577
4.900521479010478
0.8833676650871262
0.8041283161263721
1.6092305196033696
1.8732801998461346
1.9378143064532283
1.800629029133044
1.389700995329393
0.8041283161263721
1.8956440408948305
1.3041037972831986
1.3041037972831975
1.9378143064532283
2.1348210519380255
1.3041037972831957
1.3041037972831928
1.800629029133046
1.304103797283203
1.304103797283193
0.8041283161263721
0.8041283161263687
0.8041283161263725
1.2871878217461419
1.3041037972831986
1.2871878217461439
1.3041037972831975
1.9040073053201736
1.7516294589934291
1.8304544917072991
1.7558615810462195
4.449586330420219
1.7544975601627506
1.3041037972831968
2.0561050769272806
1.3041037972831986
0.8041283161263721
1.7535018293873033
0.8041283161263721
1.3041037972832041
1.3041037972831957
1.304103797283197
0.8041283161263812
1.756559731651229
0.8373458440371371
1.2871878217461439
0.8041283161263701
0.8197407127797629
0.8718629769381808
0.8041283161263637
0.8041283161263819
0.8819757751064271
0.804128316126377
1.8904473050685928
1.9417730610710089
1.7754816862597365
1.7673748099437694
2.065495575286874
1.7524703359325595
4.581059974985089
1.2871878217461377
0.8041283161263701
1.9540102735136142
0.822603453501217
0.8041283161263747
0.8041283161263715
0.8041283161263619
0.8041283161263858
1.3175190419856917
1.3041037972831975
0.8595765514133406
0.9189625950243983
0.8041283161263781
1.304103797283195
1.9374727460752288
1.2541089275399162
5.221274206853504
1.045481148732547
1.2871878217461359
1.365334963538339
0.8894715226598575
1.8926662611566685
0.8041283161263759
0.8041283161263729
0.8965947373204827
0.8041283161263725
0.8041283161263747
1.3041037972832041
0.8041283161263694
1.0385853746391973
1.2151282557256846
1.5723415632368285
1.9325193528805589
2.0153092504364194
1.8509305601798949
1.7567520517241269
0.8041283161263727
1.84736332164889
1.4541609067886585
0.8041283161263659
0.8863063628897625
0.8041283161263694
1.0195421430436786
0.8965947373204827
0.9209820107993375
1.1312781119934545
0.8041283161263759
0.8041283161263694
1.3041037972831928
1.304103797283203
0.9604795727765949
0.8041283161263769
0.8041283161263721
1.287187821746132
1.9378143064532283
0.828492476176123
0.8041283161263721
1.9378143064532272
0.8041283161263708
4.132127261492502
0.8041283161263816
0.9894555401395191
0.95550076777645
0.8041283161263698
0.804128316126377
0.8041283161263759
1.7547970292641801
0.8041283161263791
1.3626616478456497
0.8041283161263783
0.8041283161263738
0.8041283161263714
1.8304544917073002
5.221274206853501
1.8204270933895605
1.287187821746137
4.976120021492094
1.757243110836692
1.287187821746137
1.8352801224271844
1.7587218466831116
1.2871878217461377
1.8304544917072991
1.75872184668311
1.7758281744531927
4.073389948809513
1.614643370217708
0.8041283161263714
0.8041283161263697
0.8041283161263799
0.8445628881624785
0.8041283161263875
0.8041283161263881
0.8041283161263619
0.8041283161263858
5.221274206853492
0.8041283161263609
5.221274206853501
1.7549413417664745
1.726271210362047
1.3041037972831957
1.3463036154910635
1.9523252937364755
1.3041037972831937
4.123452071237989
1.754348683059105
0.8041283161263613
0.8041283161263841
0.8041283161263738
0.8041283161263617
1.5973921221581087
0.8894715226598545
0.8780788999022903
0.8041283161263701
1.1941060669333747
1.9522350733839717
1.8466965076761797
1.304103797283203
1.289080189730676
1.2871878217461357
0.8041283161263721
1.5723785643847
4.419433353821306
0.9925253623323531
0.8041283161263814
1.304103797283197
1.4884245768719544
0.804128316126373
1.1018184290731055
1.304103797283197
0.8041283161263727
1.2541089275399122
1.435399219078867
0.804128316126381
1.304103797283197
1.3794138727389553
0.8041283161263727
0.8041283161263727
1.3253281943315138
1.3041037972831961
1.7567520517241288
1.3398589657856004
0.8041283161263714
1.7505859505013213
0.8041283161263708
1.304103797283197
0.8041283161263727
0.8041283161263708
0.8041283161263708
1.9378143064532274
1.594275769696027
1.8837463079717243
1.2871878217461394
1.3041037972831928
1.287187821746137
1.3041037972831986
1.9378143064532283
1.3041037972831961
1.9067118785400166
1.6775748481069095
1.843764135324954
1.8586795409429246
1.8331310528384677
1.304103797283197
1.9378143064532283
1.7528566611486778
1.9789047324255644
1.384555378135389
1.3041037972831975
1.3041037972831968
1.9378143064532294
5.2212742068535025
1.3041037972831975
1.3041037972831957
5.105897851781954
0.8041283161263721
1.5862480232535736
0.8041283161263708
1.3041037972831961
5.221274206853497
1.3758858351362866
1.2871878217461439
1.2871878217461377
1.8304544917073033
0.8041283161263687
1.304103797283197
1.8006290291330433
1.9378143064532294
5.221274206853497
1.3041037972831975
1.9378143064532354
1.3041037972832041
1.3041037972831975
1.287187821746137
1.6476717155013618
1.900947347624235
1.8664402860315945
5.2212742068534945
1.3041037972831968
1.753736837382739
1.9882516110084476
1.2871878217461439
1.7520748280733318
1.66625868405463
1.3041037972831961
1.9738301502569635
1.287187821746141
1.304103797283188
1.7562124646617072
1.8647058823771476
1.8452388887682674
1.384555378135389
1.8617584731615346
1.7862357145875294
1.3295199016044146
1.304103797283197
1.304103797283197
1.3041037972831944
1.304103797283203
1.5732714670234935
5.190878943585834
1.757407811814672
2.11674332483386
1.8682210471170455
1.3305162103756467
1.9281766945878986
3.395254055877426
4.760003586763284
1.3041037972831961
1.8826341409017024
1.8221195635700942
5.095544499241454
1.7607667324205503
1.287187821746137
1.8304544917072996
5.1451319436089555
1.8647058823771476
1.96669640374994
1.2871878217461337
1.2871878217461357
5.078196712141546
1.2871878217461328
1.3041037972831975
1.8007229140169307
1.4855871024516685
1.3041037972831986
1.3041037972831986
1.3041037972831957
1.8822528720549097
1.7733395191040973
1.304103797283195
1.745180638148197
1.935182614260529
1.2871878217461346
1.2871878217461379
2.296783702180863
1.3398661330712407
1.949320393129725
1.4301668860008712
1.9404362498054966
1.3041037972831928
1.944741876411731
1.304103797283197
1.755354106677721
1.8647058823771443
1.3041037972831961
1.937814306453231
0.804128316126368
1.711172505958058
1.4994940950997335
1.5777239407744312
5.221274206853501
1.818021025222557
1.287187821746139
1.9062208826428357
1.8006290291330445
1.9378143064532283
1.58628382746314
4.623798815529466
1.750930833223658
1.9378143064532274
1.75183530104631
1.3041037972832012
1.3041037972831961
1.4598007513051616
0.8041283161263708
1.6757992725400197
1.9693990026723651
1.3041037972831975
1.3041037972831975
1.7533710317353384
5.221274206853497
1.2871878217461354
2.096811352211586
1.702737596194138
1.7533403856425804
1.287187821746137
1.3041037972831975
1.9321493229460716
1.4700491211625868
1.5777243518315318
1.887074506520146
3.6515736938224066
0.8041283161263724
1.9378143064532294
1.9481936609880157
4.9133592170268034
1.304103797283197
1.8769776773586266
1.287187821746141
1.304103797283197
1.4700491211626008
1.7540031771475237
1.304103797283197
1.287187821746144
0.8041283161263727
1.334435210209511
1.7524703359325677
1.3260262693796785
4.77351863994581
1.6740077307005916
1.304103797283197
4.667664725438144
1.9378143064532332
0.8041283161263721
0.8041283161263721
5.09458728947349
1.304103797283203
2.970552554420276
1.287187821746137
1.304103797283197
1.3041037972831946
1.2871878217461328
1.2871878217461439
1.3814227035276019
1.8402348682963896
1.3041037972831961
1.8516167861870643
1.7684792095525463
4.7735186399458085
1.3747934127549304
5.221274206853497
0.9925253623323531
1.9433052451404949
1.9378143064532272
1.9999991389687617
1.750930833223658
3.573353498080679
1.8148440459068822
1.304103797283197
5.221274206853497
2.725079090975623
1.67728985257074
1.2871878217461337
1.4884245768719522
1.7555772732013406
1.8647058823771443
1.3041037972831928
5.221274206853497
1.2871878217461357
1.9475039420087155
4.767171363804019
1.2871878217461377
1.910102571965342
1.2871878217461434
1.2871878217461354
1.880712183629628
1.7662239481328477
1.28718782174614
1.094441839377865
1.6550435754657828
1.3041037972832017
1.6161555418863789
1.7529282666525081
1.3041037972831957
1.8006290291330433
1.7528566611486778
1.0640071222953154
1.7048122070949558
1.2871878217461328
1.304103797283196
1.804383142032652
1.3041037972831988
1.304103797283197
1.304103797283197
0.8041283161263721
1.9494343526274975
1.3041037972831975
1.9306181056405458
1.2871878217461357
1.752641964284133
1.972023315502304
1.9101025719653455
1.9378143064532332
1.7587218466831116
1.2871878217461459
1.2871878217461328
1.3041037972831933
1.304103797283203
1.8502005743044312
1.8006290291330433
1.8304544917072976
1.3041037972831957
1.937814306453231
1.3041037972831988
1.9523252937364834
1.8149724435996009
2.174535352583653
1.304103797283197
1.9378143064532294
1.8581890708720499
5.2212742068535025
1.2871878217461419
1.7473741457826966
4.3147692191298335
1.6536022378377735
1.686917773881476
1.2871878217461357
1.9879196378088217
1.647079460855386
1.9101025719653455
1.304103797283196
1.2871878217461366
2.2726259624372487
1.844364543290641
1.3041037972831975
1.7552302081785192
1.304103797283191
0.8041283161263708
1.2871878217461357
1.9619214480896845
1.3041037972831901
1.8538188567971658
1.7518738995519119
1.287187821746137
1.3041037972832084
1.2871878217461334
1.2541089275399162
1.7509308332236566
1.4700491211626041
1.3147110231659045
1.9378143064532294
1.8455169224308354
1.3041037972831975
1.287187821746137
1.5000076619433804
1.776047360866011
0.8041283161263721
1.7523299980580576
1.9305529392630274
1.2871878217461394
1.891717652855681
1.3370575073474167
1.488424576871949
1.9565539713259799
1.304103797283196
5.2212742068534945
1.7547970292641784
1.3594990467037038
4.273173885309492
1.9394671717758427
1.3041037972832017
1.7886518179245312
3.729539881611857
2.0089910768962316
1.304103797283197
1.346998952044157
1.8839581943547754
1.4450502879519334
1.2871878217461439
1.2871878217461357
1.287187821746137
1.3041037972831928
1.7547970292641841
1.647079460855382
1.4746841906956356
1.830454491707306
1.4598007513051616
1.304103797283196
1.287187821746132
1.9816479045759101
1.304103797283197
1.9828544298241388
1.7518919366446022
1.8483502475356326
2.0443251114500405
1.2871878217461443
1.304103797283197
1.9394018693206807
1.287187821746137
1.3415714802172338
1.304103797283197
1.304103797283197
1.7399179648334762
4.62027438689653
1.9378143064532358
1.287187821746137
1.304103797283203
1.8304544917073
1.3041037972831968
1.4717925983155362
1.287187821746137
1.304103797283203
2.883484398648482
1.752790011884694
1.7518919366446022
1.8486474196385454
1.3041037972831968
1.304103797283196
1.3041037972831924
1.304103797283197
2.2223996301923847
1.3041037972832041
1.488424576871949
1.9378143064532285
1.2871878217461439
1.3041037972832001
1.9378143064532294
1.9378143064532294
1.9101025719653457
1.9858589605578105
1.7539867682798629
1.800629029133044
1.382009604734795
1.9378143064532292
1.7183784676301632
1.3041037972831988
1.864705882377148
1.3041037972832101
5.00592103423679
1.6429538696613195
1.8647058823771476
1.304103797283196
1.9378143064532332
1.9378143064532352
3.0193762383075424
1.3041037972832041
1.553496107487329
1.7542411480986702
1.304103797283197
1.9378143064532294
1.3041037972831957
1.7517849688087017
1.6674876391711164
1.2935616413316002
1.7048122070949558
1.2871878217461357
1.3041037972832017
1.287187821746137
1.8463186318479283
2.076875227856853
1.9101025719653457
2.027170694433317
1.8630168630173924
1.1055087947825362
1.9388620537021437
1.891717652855674
1.8723036396046648
1.830454491707304
1.7575944336516096
1.8194811869598344
1.9115835802090528
1.3041037972831957
1.9378143064532292
1.8304544917072991
1.287187821746144
3.6274092784058247
1.8643681972277528
1.304103797283197
1.784945027785395
1.3041037972831973
1.8516167861870692
4.655478413259566
1.753378528372308
1.3688921674391696
2.0205269341703604
1.830454491707306
1.3041037972832012
1.8123053149963764
1.750930833223658
1.3041037972832041
1.2871878217461385
1.3041037972831975
1.3041037972832012
1.2871878217461328
1.9378143064532283
1.3041037972831957
1.3041037972831975
1.287187821746137
5.199605618935953
1.2871878217461359
1.764219557308906
1.9378143064532272
1.1233764692081805
0.8041283161263687
1.0973077412372574
3.670133933937529
1.9378143064532292
1.3041037972831975
0.9524541439197634
2.117585419709277
1.7540191299773367
1.2871878217461357
1.8576198662518548
1.304103797283203
0.8041283161263747
1.5588936024758626
5.221274206853497
1.9378143064532294
1.2871878217461366
0.8041283161263727
1.115464210529159
1.8304544917072991
1.6355229131589426
1.758721846683107
1.7373158025537663
2.004858437623162
1.3041037972831981
1.647079460855386
0.8041283161263708
1.9378143064532294
1.7682996121928198
1.9057094853333718
1.371627860248377
0.8041283161263759
0.8041283161263701
1.620339744602628
1.910102571965344
1.7878968361840908
1.3244301525850701
5.1401492765284145
1.3041037972831973
1.7512379931819515
0.969798194688718
1.8045902190531868
1.9281766945878986
1.8778311990586904
1.3041037972831975
2.0449709400725595
1.7336621108635966
1.287187821746137
1.7557727014118993
1.5896753488433384
1.7579321482669399
1.9101025719653528
1.7511276881034865
1.8836242031711563
5.221274206853497
1.8304544917072991
1.3041037972832012
1.3041037972831964
1.287187821746137
1.7426987912244711
1.304103797283197
1.6329303874790673
1.303823972005899
1.304103797283196
1.7509308332236537
1.3041037972831957
1.287187821746144
0.8041283161263724
1.589435648232833
1.9738301502569635
0.8041283161263721
1.4348899381549096
1.304103797283197
1.943198137376035
1.8507459179112664
1.287187821746137
1.9084848595759312
1.8874352328331188
1.9851759802012587
1.76932748151052
0.8041283161263708
1.640996042461827
1.4700491211626034
1.7125735438240393
1.7574070027021724
1.3041037972831975
1.647079460855382
0.8041283161263721
1.5970417260299175
2.05218972063174
1.8836507513036767
1.131096872607447
1.3041037972831928
1.7560987421007421
1.304103797283197
1.937814306453226
1.910102571965345
1.4538578928146733
1.3041037972831975
1.287187821746137
2.0354762573676726
1.304103797283197
1.3785431633865641
1.74612766708504
1.3041037972831988
1.8999255251626213
1.9042058174174281
1.7575944336516096
2.0405656940442083
1.2871878217461357
3.029360918241383
1.2871878217461328
2.332111647782966
1.6802284420702838
1.287187821746137
1.3041037972831948
5.162150016993604
1.7630071770843345
1.9176462463157355
0.8041283161263708
5.27480501708772
1.2151282557256848
1.3653349635383358
1.9236955296527192
1.6446954733832508
1.3041037972831928
1.8105072513478553
1.4638655035472614
1.9435151928528123
1.4371188420215064
1.304103797283197
3.7182872544159227
1.8476251703152402
1.0466604742281977
1.3041037972831975
1.7555772732013406
1.3280875982182556
1.7560987421007421
1.876001239253835
1.7587218466831183
1.2871878217461394
1.304103797283196
1.9411184758393276
1.997622595546653
1.304103797283197
1.7803727323744356
1.8422697912364037
1.304103797283196
1.3041037972831975
1.287187821746132
1.3041037972832046
2.015294623447087
1.6662586840546327
3.3980935126486105
1.7530815361388086
1.2871878217461328
1.7536910083679809
1.9851759802012587
1.8694333993430254
1.6987077037230571
1.304103797283203
1.7749179151611616
1.8574504939518695
1.8951347696704777
1.908530260354884
1.9378143064532272
2.0089910768962316
1.2871878217461346
1.7901065991940377
1.82084918049251
1.7536538689153676
1.8673913315871336
2.0570916064997995
2.076875227856846
1.470049121162599
1.2871878217461357
1.9619214480896845
1.287187821746137
1.4916001512815542
1.97383015025696
1.96669640374994
1.828577314333134
1.3041037972832017
1.7159007521459155
1.304103797283196
1.8650081132203071
1.287187821746137
3.1583497079153253
1.8304544917072991
1.7694138620504196
1.287187821746144
4.904643010573836
1.7038291112310142
1.9378143064532285
1.3041037972831957
1.8516167861870612
1.3041037972831957
1.9378143064532272
1.947117998504739
1.5073814023252277
1.4598007513051616
1.3041037972831975
1.7645175493908518
1.304103797283203
1.7549517343162901
5.052242675352836
5.221274206853497
1.2871878217461357
1.304103797283196
1.2871878217461403
1.8647058823771476
1.2871878217461385
1.423495740275163
1.9378143064532292
1.399965508530297
1.838883925639917
1.287187821746133
1.287187821746137
1.389700995329385
1.7200550771432306
1.3670911464595634
1.287187821746131
1.2871878217461377
1.9378143064532272
1.8304544917073
1.4499517774520507
1.75872184668311
1.8863194158619165
1.2871878217461366
1.287187821746137
1.8940688226559101
1.8006290291330467
1.3041037972831986
1.3041037972832032
1.900630328770074
1.2871878217461328
1.7710095257161709
1.4661949977603803
1.8213901987352055
1.8304544917073007
1.96669640374994
0.9244467320535961
1.7519047548513988
1.7579321482669492
1.435936639004469
1.558272012892448
5.2212742068535025
1.2871878217461319
1.7574070027021724
5.2212742068535025
5.221274206853497
1.9017827002892007
1.837193857692014
5.27480501708772
1.7587218466831116
1.7555193967836265
4.478775562662946
1.7542411480986704
1.2871878217461357
5.1735926482416525
1.9024783580226712
1.287187821746137
1.9976225955466573
1.8669094665640618
1.7587218466831116
1.304103797283196
1.304103797283197
1.3178432283927786
1.3041037972831928
1.9856438645121206
1.9378143064532294
1.3175815945662557
1.3041037972831975
1.2871878217461377
1.304103797283197
1.5862480232535736
1.8970009520567235
1.3041037972831975
1.2871878217461366
1.2871878217461366
1.3041037972831948
1.7516294589934274
1.287187821746137
1.3041037972831988
1.304103797283197
0.8041283161263721
1.864705882377148
1.304103797283196
1.2871878217461439
1.756621258633449
1.304103797283196
1.304103797283196
1.8961261962760703
1.9351299145258094
0.8041283161263721
1.4496145870823967
1.972615628681885
1.2871878217461366
0.8711772373126423
1.977498869986627
0.9139260598567226
1.1288933724717845
1.7557727014118973
0.8041283161263791
3.006526314456658
1.7555772732013406
1.904825685828015
1.80335800620259
1.304103797283201
1.4939413258525571
1.8006290291330436
2.2491383552462603
1.3041037972832012
1.287187821746137
0.804128316126368
1.115464210529159
1.2541089275399162
1.7537890904879696
0.8041283161263708
1.7496904692873798
1.726271210362047
1.3836626183549614
5.2212742068534945
1.7440636041622264
1.3041037972832084
1.3041037972832041
1.304103797283203
1.8647058823771525
1.3041037972831957
1.3640360663701998
1.3041037972832017
0.8041283161263708
1.6478642866739384
1.7557727014118973
1.4598007513051616
1.9438776827716795
1.304103797283203
1.2871878217461397
1.3041037972831975
1.304103797283196
1.3041037972832012
1.756942029496303
1.2871878217461439
1.7564718611625738
1.304103797283196
1.7543645740055431
1.9738301502569635
1.876030868030866
1.8402937382749598
1.304103797283203
1.3041037972831975
1.9378143064532292
1.3041037972832041
1.7862357145875294
1.304103797283203
1.304103797283197
1.2871878217461374
1.887074506520146
1.7575944336516063
1.304103797283196
1.3041037972832008
0.8170017199800776
1.9732700959204394
1.3041037972831975
1.363924178171136
2.0227619079506947
1.3041037972831968
1.8579722277086381
1.2871878217461357
1.5954641936059242
1.86182445984395
1.9378143064532285
1.9059121457337476
1.8304544917072991
1.756098742100737
1.2871878217461419
1.304103797283203
5.221274206853497
1.7135997191137329
1.666258684054633
1.287187821746137
1.837087454362558
1.2871878217461377
1.8105072513478553
2.0627514052500633
1.8769776773586377
1.7029313537986186
1.9378143064532294
1.9976225955466556
3.384482564781319
1.3306601064646262
1.7872057287561296
5.221274206853497
0.8041283161263721
1.3041037972831948
1.3127716930801419
1.3041037972831944
1.9378143064532285
0.8041283161263771
1.9101025719653455
1.750930833223658
1.304103797283196
1.2871878217461439
1.2871878217461439
1.910102571965344
1.2871878217461388
2.0089910768962316
1.8932338789461964
1.4484458639069937
2.261037828439651
1.754019129977338
1.96669640374994
1.9378143064532332
1.6886153182921775
1.5367908327899147
1.75872184668311
1.8304544917072991
1.2871878217461357
1.9378143064532285
1.4885831599285213
1.2871878217461357
0.8041283161263721
1.406823676211114
1.2871878217461357
1.287187821746144
1.8304544917073
1.381505610966476
1.304103797283196
1.8423484132520174
1.3878906863167384
1.4426594544113707
1.3041037972831975
1.8516167861870647
1.8498707755053183
1.094441839377865
1.8304544917073036
1.3041037972831917
0.8041283161263708
2.0768752278568487
1.7545121603711102
1.5261032449265954
1.304103797283197
1.3041037972832021
1.2871878217461377
1.3041037972831975
1.7842835363532967
1.2871878217461388
1.304103797283197
0.8041283161263721
1.800629029133044
1.910102571965341
1.3041037972832041
1.287187821746137
1.2871878217461379
1.4528411005701867
1.7518827362294709
5.221274206853497
1.4598007513051616
1.9254831188593198
2.016674647642478
1.3041037972832021
1.2871878217461379
1.8044076602470667
2.064821037749521
1.3041037972831928
1.9089955594435213
1.304103797283197
1.8304544917072991
1.7977085235978096
1.2871878217461374
1.5694049640310443
2.057801091906919
1.3041037972831968
1.3041037972831975
1.6004036301373628
1.2871878217461366
1.3041037972831975
2.0517662839872814
1.6921690675867447
0.8041283161263747
1.7869640292392621
0.804128316126368
1.5130312233209529
4.457252667359569
2.012716770343823
1.6313846926914044
1.9668858397091136
1.2398064451568414
1.3041037972831955
1.2896917344925596
1.8865523029668871
1.287187821746137
1.9378143064532272
1.287187821746144
1.4371188420215064
1.9346553402561621
1.318593243269493
1.287187821746137
4.4495863304202175
1.2871878217461377
1.9378143064532274
2.043328995001374
1.287187821746139
5.221274206853499
1.2871878217461328
5.221274206853501
1.9413279214715746
1.5000076619433804
1.8304544917073045
1.2871878217461377
1.8343597849133595
1.5729000523996388
1.6691852295944385
1.3041037972831953
1.9378143064532285
1.9378143064532294
1.7462824040065188
1.7520295324102233
0.8041283161263708
1.7529190261117213
1.752213108455015
1.3041037972831928
1.287187821746137
1.9378143064532294
1.7823324794312458
1.304103797283196
1.3041037972831975
2.0768752278568487
1.4302184910635325
1.3234469055539515
1.2871878217461374
1.304103797283196
1.9378143064532272
1.8646084355877521
1.304103797283196
1.4700491211625952
1.7306416726968952
2.053362300225273
1.304103797283196
1.875064733541949
1.710218775073252
1.2871878217461377
1.0220321325894361
1.8375632318487118
2.477206398049764
1.3041037972832012
1.9378143064532292
1.666258684054633
1.2871878217461357
1.9667380958359413
1.2871878217461439
1.3041037972831975
1.2871878217461439
1.3041037972832024
1.3041037972832012
1.75872184668311
1.4098133890881543
1.74901450086732
1.9101025719653515
1.702737596194144
1.304103797283196
1.910102571965342
1.887074506520146
1.7587218466831116
1.8304544917073005
1.7482024848801545
1.287187821746144
3.0966014772700516
1.7587218466831223
1.4410242900165628
1.5226329046547975
1.304103797283197
0.9468445615749479
3.1047748350173685
1.3041037972831975
0.8605519982080512
1.9378143064532285
0.8041283161263795
0.9314154136979106
1.5763718290697446
1.304103797283197
0.8126945843289073
2.000587011183889
2.0299224858734353
1.3041037972831973
2.008991076896228
1.3171406403125365
1.304103797283196
1.3175815945662557
0.8041283161263717
1.2871878217461419
1.115464210529159
1.1233764692081805
1.3017029967871894
1.750930833223658
1.2871878217461328
1.958501348189005
1.304103797283196
5.221274206853497
2.010185876592333
1.3030960951144033
1.304103797283203
1.750930833223658
1.647079460855386
1.3041037972832017
1.2871878217461377
1.901672820595154
1.6136875105640067
1.733460988597264
1.115464210529159
1.9378143064532285
1.755354106677721
5.201072079679177
1.8304544917072996
1.887307670182357
1.2871878217461377
1.52973360824137
1.3041037972831975
1.304103797283197
1.8647058823771483
1.8635696466487546
1.7987306089813606
1.5037210465562674
1.806952106378693
1.8105072513478553
1.9887595728578145
1.9378143064532294
1.304103797283197
1.7565806372484556
1.8780849079048791
1.3041037972831944
1.2871878217461357
1.3041037972832072
1.3041037972831973
1.768016241093154
1.3041037972831955
1.7532435679600638
1.7433635701705796
1.7587218466831112
1.520672863003998
1.7549227162786445
1.800629029133044
1.7684648348964656
1.8932338789461964
1.9976225955466538
1.9101025719653455
1.7535018293873046
0.890581486157696
1.2871878217461414
1.3041037972831957
1.853694506466981
1.395577681715696
1.9378143064532285
1.3358977233692992
2.0768752278568465
5.092182717427315
1.88889563337136
1.9976225955466538
1.9378143064532292
1.3041037972831988
1.3041037972831928
1.908598339045815
1.3041037972831957
1.2871878217461357
2.0501005865232944
1.376081124062186
1.4098133890881543
1.287187821746137
1.887074506520146
1.7528566611486778
1.406823676211114
1.9639973708311165
1.2871878217461414
1.7587218466831016
1.4586348283349633
2.0696181876620674
1.2871878217461377
1.9378143064532272
1.9484236415182385
1.304103797283191
1.9378143064532294
1.8526403444377175
1.2871878217461357
1.304103797283197
1.304103797283197
1.304103797283196
0.9925253623323531
1.5723415632368285
1.747407192958018
1.4385428015299833
1.7538689917605503
1.8126103268349103
1.2871878217461357
1.8088967174122517
1.3502128249848857
1.2871878217461357
1.7524703359325595
1.9378143064532312
1.3041037972831981
1.9378143064532285
1.3902559354192265
1.8647058823771485
1.304103797283196
1.9378143064532285
1.9101812846751347
1.6958261249299451
1.7513460020259821
1.8657168790550396
1.3041037972831975
1.2975717354838177
1.304103797283203
1.2871878217461385
0.8041283161263708
1.8304544917072991
1.6961674584071047
1.745505139993415
0.8041283161263795
1.9738301502569635
1.7520295324102233
1.4199158352571675
1.5101453365616846
3.7934330478788745
1.4130290615554992
0.8041283161263721
1.2914411097326464
1.5591457490705178
1.9378143064532354
1.2871878217461366
0.8041283161263721
1.7547970292641841
1.2871878217461328
1.2871878217461377
1.9139954662068441
1.304103797283203
1.8304544917073
1.7574070027021724
4.904643010573836
1.287187821746137
1.8540298252647618
1.304103797283196
1.304103797283196
1.9101025719653455
1.3041037972831926
1.7749066557302424
1.939658944044268
1.5223979297499208
1.9378143064532294
1.3041037972831975
1.304103797283197
1.9378143064532292
1.4404329255346
1.9370473710829492
4.976120021492094
1.9378143064532285
2.0030406206391462
1.8639972076489655
1.3392559785434741
1.304103797283197
1.304103797283197
1.8634870882529144
5.221274206853497
1.287187821746137
1.9950272433111302
1.7501481665653371
1.7862357145875294
1.3041037972831988
1.3041037972831975
1.9378143064532292
1.434627291394639
1.3041037972831957
1.9213503650673365
1.7509308332236566
1.287187821746144
1.3041037972831986
1.2871878217461357
0.8041283161263721
1.3041037972831968
0.9451856240380556
1.758721846683108
1.755354106677721
1.837193857692007
1.2871878217461337
1.287187821746139
1.2871878217461419
1.8304544917072991
1.3041037972831944
0.8809682835057405
1.8302131349075126
1.3041037972832041
1.925796005120335
1.3041037972832012
2.0768752278568487
1.7667612030818776
1.9950272433111302
1.8136526020179518
1.304103797283197
1.3158334405253203
1.3693056841102569
1.3789519285297485
0.9852728439434699
0.804128316126373
1.9543492955861725
1.7564718611625743
1.9834406317795488
1.8304544917072991
1.287187821746137
1.304103797283197
1.304103797283196
1.3128138583717248
1.304103797283197
1.9101025719653455
2.022823235774627
1.7974138892368583
1.2871878217461439
1.8150096080029139
5.153846191591252
5.221274206853497
1.975257063891823
1.287187821746137
0.804128316126378
0.8041283161263721
1.7516994267145123
1.6921690675867398
1.9378143064532354
4.6631182057868905
1.413029061555502
2.053072118435306
1.6004551367020263
1.3041037972831957
1.3041037972831944
1.3041037972831933
1.2871878217461366
1.3041037972831964
1.7200550771432273
1.2871878217461357
1.7426987912244711
1.9101025719653455
1.9378143064532292
1.2871878217461303
1.9713063825235513
1.9264232868253628
0.8041283161263708
1.3041037972831926
1.4098133890881543
1.9378143064532287
1.287187821746137
1.2871878217461357
0.8041283161263708
4.546122203081699
1.8782750765783047
1.9378143064532294
1.3041037972831957
1.752213108455015
1.3041037972832041
5.074935728744494
1.304103797283197
1.3263127852886583
1.3041037972831953
1.3041037972831944
1.8304544917073
1.75872184668311
1.9820189210751078
1.7524703359325677
1.7462824040065188
1.4202573000619476
1.304103797283207
2.076875227856853
1.9398104570710486
5.2212742068534945
1.647079460855381
0.8041283161263727
1.2871878217461328
1.7555772732013406
5.221274206853501
1.7552302081785192
1.9378143064532287
1.774586580890989
1.7528566611486778
5.221274206853497
1.5130312233209529
1.3041037972832041
1.4369108971338798
1.2871878217461366
0.8041283161263721
1.7547970292641841
1.887074506520146
1.3041037972832008
1.9378143064532294
1.784388864586031
1.7587218466831116
1.5226329046547975
1.937814306453226
1.7535018293873081
5.221274206853501
1.2871878217461357
1.3041037972832041
1.2871878217461388
1.233561572711221
1.9646261395902098
1.4538578928146733
1.9384233888411342
1.7371262256542055
1.9488599495761822
1.7496904692873798
1.9378143064532285
1.6486235358106263
1.3041037972831928
1.937814306453226
1.8304544917073045
1.8502005743044312
2.0916258131078034
1.7516627745693314
1.3041037972831908
1.304103797283196
1.287187821746147
1.8265785313296887
1.3041037972831953
5.221274206853497
1.4538578928146733
1.4098133890881543
1.2871878217461377
1.9432051865951114
1.9378143064532285
1.6166515949315494
1.830454491707302
1.8304544917072991
1.830454491707305
1.7554695136763174
1.4267473047133405
1.2871878217461377
1.3041037972831986
1.9976225955466538
1.7550568496924526
1.910102571965344
2.016509236199835
1.757951021870633
1.304103797283197
1.800629029133046
1.9666964037499481
1.780609744523733
1.2871878217461439
1.304103797283196
1.8934398393489869
1.3041037972831957
1.3041037972831953
4.7735186399458085
1.6930245506999266
1.3041037972832041
1.0348584274893913
1.3991867025757698
1.287187821746137
1.7513479237907967
1.3640360663702018
1.9481936609880137
1.9254640319527403
1.2871878217461357
1.2871878217461354
2.065495575286872
1.7684648348964633
1.8304544917072982
1.304103797283196
1.4130290615554992
0.8041283161263726
1.2871878217461328
1.8402346360110287
2.0768752278568487
1.5415034506134129
1.287187821746137
1.3041037972832017
0.8041283161263721
1.7620911038449505
2.050984774161673
2.043328995001374
1.4554539153490802
1.7048122070949558
1.9062299994767518
1.304103797283196
1.8639972076489626
1.304103797283197
5.221274206853501
0.8041283161263708
1.7555772732013406
1.861713697316898
1.304103797283196
3.8370883417708375
1.910102571965345
1.287187821746137
1.3877868157480737
1.3041037972831975
1.2871878217461357
1.9378143064532352
1.488424576871949
1.304103797283197
1.7524703359325595
1.304103797283203
2.0509847741616674
4.904643010573836
1.809901428065175
1.2871878217461377
1.304103797283197
1.9378143064532272
1.4538578928146733
1.2928552486880815
1.2522171217531373
1.3041037972831973
4.01151227311619
1.9823943280508174
1.9378143064532285
1.304103797283196
1.5680966471383893
1.287187821746137
1.9335287130192593
1.3041037972831933
1.3041037972831988
0.8041283161263721
2.1005223940184448
5.221274206853497
1.2871878217461357
1.3209955932687174
1.304103797283197
0.8041283161263848
1.4538578928146733
1.3041037972831988
1.3746048340291117
1.9378143064532287
1.380553364394914
1.3041037972831975
1.8006290291330418
1.3041037972832012
0.8041283161263708
1.3041037972831917
1.4835664506895327
1.2871878217461388
1.4700491211625921
1.4130290615554992
1.3041037972832046
1.610756851449219
1.2871878217461357
1.5927725135511355
1.9378143064532274
2.6250608390094903
1.9976225955466538
1.8159954242733694
1.500007661943383
1.4989624415387381
1.3041037972832021
1.637456626539333
5.221274206853497
1.9378143064532274
1.304103797283197
1.287187821746139
1.7541660961695962
1.9378143064532325
1.9378143064532358
1.2871878217461419
5.221274206853501
1.287187821746144
1.7542411480986704
1.304103797283196
1.7519794890335045
1.2871878217461328
0.8041283161263708
1.7547970292641841
1.9378143064532292
1.7543645740055431
1.3041037972831975
1.4302184910635345
1.4385428015299837
5.06360618318816
1.7524703359325595
1.2871878217461394
1.9378143064532334
1.800629029133044
1.2871878217461377
1.9976225955466556
1.849545081654028
1.2871878217461379
1.7913073322187534
1.9976225955466538
1.2871878217461439
1.8272959383598357
1.7514901046433164
1.304103797283197
1.750930833223658
1.4098133890881543
5.221274206853497
1.9101025719653457
1.756471861162576
1.9378143064532292
1.8304544917073
5.221274206853497
5.2212742068535025
1.304103797283196
1.9237661666397383
1.3041037972832017
1.304103797283196
1.9101025719653457
1.7027375961941376
1.3041037972831926
1.3041037972832041
1.3041037972831968
1.804383142032652
1.2871878217461377
1.2871878217461366
1.304103797283196
1.3041037972831924
1.910102571965344
1.3712840546741791
1.3640360663701998
1.8161047463457698
1.304103797283201
1.304103797283196
1.9619214480896845
2.161072158440952
1.304103797283197
1.7567520517241288
1.752213108455015
1.3032074362504054
1.753243567960066
1.3902559354192265
2.0768752278568487
1.3041037972832041
1.2871878217461357
1.3041037972832052
1.7538250206400747
1.6802284420702838
1.3041037972831917
1.2871878217461328
1.287187821746134
1.304103797283203
1.4136310166573365
1.3041037972831906
1.3041037972831957
1.304103797283197
1.287187821746137
1.5219748000482007
1.747407192958018
1.3041037972831933
1.3041037972831957
1.3041037972831973
1.7862357145875294
1.7881434238198097
1.4366558565323284
1.3578399413175906
1.7275904020032642
1.304103797283197
1.7819887656198958
1.304103797283203
1.304103797283197
1.9266205924257847
1.5981337955261101
1.6375172370786195
0.9709171242662294
1.7524703359325626
1.957131103579959
1.9691638769760482
1.8159954242733685
1.3041037972831941
1.7763304703736529
1.435936639004469
1.9101025719653482
1.2871878217461328
1.800629029133044
1.8097838279897547
1.2871878217461377
1.304103797283197
1.8647058823771487
1.304103797283197
1.2871878217461346
1.304103797283197
1.7807357714603926
1.2871878217461354
1.800629029133044
1.499322461218611
1.4098133890881543
1.3041037972831981
1.4385428015299833
1.8006290291330496
1.304103797283196
1.304103797283197
1.9378143064532332
1.7462824040065188
1.800629029133044
1.7651570323199564
1.72509660571027
1.3596966055840884
1.8564661306093762
1.7509308332236617
1.304103797283196
1.7515367229392587
1.7862357145875294
1.8397442239664703
1.9378143064532332
1.3041037972831957
1.304103797283203
5.221274206853497
1.9378143064532292
1.800629029133044
1.9101025719653455
1.3041037972832012
1.6166515949315494
1.376081124062186
1.287187821746137
1.910102571965341
1.9378143064532294
1.9378143064532294
1.8304544917073
1.9378143064532285
1.5561200194638447
1.6921690675867425
1.287187821746137
1.9378143064532287
1.8702352367895592
1.8344639262140643
1.7547970292641861
1.6795158739806468
1.910102571965344
1.891717652855681
1.3286389992877619
1.9378143064532274
1.9378143064532294
2.0641870980038726
1.287187821746144
1.3041037972832021
1.9378143064532294
1.9378143064532294
1.7426987912244711
1.9293972144025644
1.9348462620968843
1.3281781598433662
1.2871878217461328
1.902273600583864
2.261355479894334
1.8773230984448361
1.2871878217461357
1.2871878217461366
1.7881014813500904
1.3041037972831975
1.9378143064532294
1.6900192947642207
1.304103797283197
1.287187821746137
1.4302184910635325
5.221274206853499
1.7559452602449963
1.800690426204196
1.891717652855674
1.8443248025304813
1.3041037972832041
1.8935876042777255
1.4828021352188503
0.8041283161263708
1.2871878217461377
1.9378143064532294
1.9449766529317798
1.9539289534455262
1.2871878217461377
1.8540632164621236
1.7540191299773367
1.3562864028157875
1.9378143064532354
1.7555772732013406
1.304103797283196
1.304103797283197
1.287187821746137
1.5071727284616019
1.313287993367984
1.8578553684877128
1.7555772732013406
1.3041037972831917
1.9858589605578132
1.7147002570361654
1.9378143064532294
1.2871878217461303
1.7528566611486778
1.2871878217461359
1.2871878217461359
1.287187821746137
1.8597346432583841
1.86781694775697
1.7528566611486802
1.3041037972831928
1.2871878217461385
0.8041283161263708
1.719063131722017
1.8467375095236873
1.2871878217461357
1.7530324557285561
1.9378143064532283
1.304103797283203
1.3041037972831957
1.3041037972831968
1.7528566611486778
2.0694873484057315
1.4385428015299833
1.304103797283201
2.065495575286868
1.2871878217461366
1.8824844434231982
1.8516167861870652
1.362635489761275
1.8769776773586273
1.7926583030208185
1.2871878217461357
1.9378143064532354
1.9101025719653455
1.7509308332236586
1.304103797283196
1.2871878217461357
1.752926026084472
1.8586845759523267
1.2871878217461357
1.2871878217461394
1.2871878217461357
1.9856438645121155
1.2871878217461328
1.7487801495834154
1.3041037972831975
1.304103797283203
1.7568778073142715
1.910102571965342
1.3041037972832017
1.376081124062186
1.9899164421605824
1.287187821746137
1.3041037972831941
1.7528566611486778
1.6039636331035998
1.756471861162576
1.3226929780431198
1.7605133434733893
1.8783437011936783
1.3041037972831953
1.9378143064532352
2.0509847741616674
1.8150494868799596
1.3041037972831917
1.2871878217461337
1.7983284474709056
1.2871878217461357
1.647079460855392
1.9378143064532294
1.287187821746137
1.8570684676736875
1.6832755989469903
1.2871878217461328
1.6332586624017422
1.2871878217461357
1.8062361847531687
0.8041283161263721
1.7487801495834117
1.4385428015299833
5.221274206853498
1.3041037972831975
1.304103797283197
0.8041283161263721
1.8717589717395988
1.3041037972831975
5.221274206853498
1.947443441586575
1.2871878217461439
1.6599887461661893
1.3041037972831928
1.2871878217461357
1.2151282557256848
1.2871878217461443
1.2871878217461366
1.8188561635550389
1.3041037972832012
1.7509308332236644
1.8304544917073067
1.3459306717223254
1.2871878217461366
1.8304544917073
1.830454491707306
1.3041037972831957
1.287187821746137
1.287187821746137
1.2871878217461334
1.8323087430809817
1.2871878217461377
1.9976225955466538
1.3041037972831957
1.287187821746137
1.3041037972831928
1.3041037972832012
0.8041283161263721
1.7057699713466823
3.0795692165324158
1.882412292012215
1.2871878217461357
1.9101025719653455
1.8304544917072991
1.3041037972831897
1.9378143064532294
1.4543291915858227
1.3041037972831975
1.3533669684831657
1.287187821746144
